{"learner":{"attributes":{"scikit_learn":"{\"_estimator_type\": \"regressor\"}"},"feature_names":["temperature_2m_mean","precipitation_sum","wind_speed_10m_max","wind_direction_10m_dominant"],"feature_types":["float","float","float","float"],"gradient_booster":{"model":{"gbtree_model_param":{"num_parallel_tree":"1","num_trees":"100"},"iteration_indptr":[0,1,2,3,4,5,6,7,8,9,10,11,12,13,14,15,16,17,18,19,20,21,22,23,24,25,26,27,28,29,30,31,32,33,34,35,36,37,38,39,40,41,42,43,44,45,46,47,48,49,50,51,52,53,54,55,56,57,58,59,60,61,62,63,64,65,66,67,68,69,70,71,72,73,74,75,76,77,78,79,80,81,82,83,84,85,86,87,88,89,90,91,92,93,94,95,96,97,98,99,100],"tree_info":[0,0,0,0,0,0,0,0,0,0,0,0,0,0,0,0,0,0,0,0,0,0,0,0,0,0,0,0,0,0,0,0,0,0,0,0,0,0,0,0,0,0,0,0,0,0,0,0,0,0,0,0,0,0,0,0,0,0,0,0,0,0,0,0,0,0,0,0,0,0,0,0,0,0,0,0,0,0,0,0,0,0,0,0,0,0,0,0,0,0,0,0,0,0,0,0,0,0,0,0],"trees":[{"base_weights":[2.012148E-7,1.6168716E1,-9.166808E0,2.0318027E1,-6.390194E0,-4.7110087E-1,-2.311065E1,3.2988167E1,8.903315E0,2.6072496E1,-8.604711E0,-1.2160817E1,2.055497E1,-6.904778E-1,-2.6772936E1,4.382609E1,2.7105898E1,1.8384083E1,9.998973E-1,3.4797886E1,1.6621399E0,-1.2662239E0,-1.4983339E1,7.82571E0,-2.0052982E1,3.0500856E1,4.081906E0,8.836122E0,-5.8048806E0,-1.5599309E1,-3.1698376E1,3.9285103E1,2.0792526E1,4.2846893E1,2.408661E1,2.391992E1,7.721159E0,-1.7693704E0,6.082282E1,-5.883488E-1,3.8669907E1,3.8082561E0,-1.0383488E0,8.357735E0,-7.1110387E0,-3.8805776E0,-3.1200573E1,1.498429E1,-1.1510796E1,1.4234405E0,-2.339523E1,3.660365E1,1.9728601E1,1.6250587E1,-1.0984343E1,-9.213588E0,1.5426927E1,-1.0952436E1,8.634568E0,-1.1601885E1,-2.4748297E1,-2.1441334E1,-3.3286816E1,1.5063239E1,1.03506775E1,1.3937425E1,2.505688E0,6.1199007E0,1.0254427E1,4.788684E0,8.425465E0,-1.1388335E0,4.3229494E0,-2.295569E0,1.6586361E0,1.1390972E1,2.543426E1,5.567477E0,1.3391403E1,1.4155351E0,1.6165124E-1,-4.8921103E0,4.2788243E0,-3.1104624E0,2.8575478E0,-7.6613584E0,-6.5432334E-1,-7.477426E0,-1.2540655E1,5.7010746E0,-4.4891324E0,8.387381E0,-4.885355E0,4.4334025E0,-7.254506E0,-1.1045439E1,-5.536281E0,6.914992E0,1.2890035E1,-2.5283623E0,6.8626027E0,7.4965777E0,2.5014057E0,-8.803256E0,-7.358638E-1,1.0030023E0,-1.2432523E1,6.1096478E0,-2.5943122E0,6.2155356E0,-3.66212E0,1.1087379E1,-2.0604212E0,-1.1807388E0,-5.1519136E0,-7.944533E0,4.442477E0,2.1718343E-4,-9.36658E0,-8.64632E0,-1.1261845E1],"categories":[],"categories_nodes":[],"categories_segments":[],"categories_sizes":[],"default_left":[0,0,0,0,0,0,0,0,0,0,0,0,0,0,0,0,0,0,0,0,0,0,0,0,0,0,0,0,0,0,0,0,0,0,0,0,0,0,0,0,0,0,0,0,0,0,0,0,0,0,0,0,0,0,0,0,0,0,0,0,0,0,0,0,0,0,0,0,0,0,0,0,0,0,0,0,0,0,0,0,0,0,0,0,0,0,0,0,0,0,0,0,0,0,0,0,0,0,0,0,0,0,0,0,0,0,0,0,0,0,0,0,0,0,0,0,0,0,0,0,0],"id":0,"left_children":[1,3,5,7,9,11,13,15,17,19,21,23,25,27,29,31,33,35,37,39,41,43,45,47,49,51,53,55,57,59,61,63,-1,65,67,69,71,73,75,-1,77,79,-1,81,83,85,87,89,91,93,95,97,99,101,103,105,107,109,111,113,115,117,119,-1,-1,-1,-1,-1,-1,-1,-1,-1,-1,-1,-1,-1,-1,-1,-1,-1,-1,-1,-1,-1,-1,-1,-1,-1,-1,-1,-1,-1,-1,-1,-1,-1,-1,-1,-1,-1,-1,-1,-1,-1,-1,-1,-1,-1,-1,-1,-1,-1,-1,-1,-1,-1,-1,-1,-1,-1,-1],"loss_changes":[6.0709075E5,1.388509E5,3.1694075E5,1.807781E5,1.6830742E4,3.9621572E5,8.2419E4,3.661675E4,4.9435723E4,3.1370098E3,1.01386875E4,1.635724E5,9.424692E4,6.96994E3,4.700075E4,2.1230219E4,1.7360719E4,1.7523781E4,5.991293E4,1.6414873E3,6.8157005E1,5.796958E3,2.076543E4,4.086853E4,5.33655E4,2.2878812E4,4.014583E4,6.090243E3,7.007062E3,9.441133E3,9.02925E3,7.5691562E3,0E0,7.2105312E3,1.14733125E4,6.080922E3,8.0663667E3,1.4896639E4,5.5410586E3,0E0,3.7187988E2,9.360741E0,0E0,5.912769E3,3.5667207E3,2.5207588E3,2.0851758E3,2.6163914E4,1.5528292E4,3.489384E4,4.1965594E4,1.8673219E4,1.1888133E4,8.157592E3,1.5278383E4,5.8041665E3,4.5751973E3,2.9946436E3,1.1231002E4,7.918992E3,5.877785E3,1.7406465E4,8.717625E3,0E0,0E0,0E0,0E0,0E0,0E0,0E0,0E0,0E0,0E0,0E0,0E0,0E0,0E0,0E0,0E0,0E0,0E0,0E0,0E0,0E0,0E0,0E0,0E0,0E0,0E0,0E0,0E0,0E0,0E0,0E0,0E0,0E0,0E0,0E0,0E0,0E0,0E0,0E0,0E0,0E0,0E0,0E0,0E0,0E0,0E0,0E0,0E0,0E0,0E0,0E0,0E0,0E0,0E0,0E0,0E0,0E0,0E0],"parents":[2147483647,0,0,1,1,2,2,3,3,4,4,5,5,6,6,7,7,8,8,9,9,10,10,11,11,12,12,13,13,14,14,15,15,16,16,17,17,18,18,19,19,20,20,21,21,22,22,23,23,24,24,25,25,26,26,27,27,28,28,29,29,30,30,31,31,33,33,34,34,35,35,36,36,37,37,38,38,40,40,41,41,43,43,44,44,45,45,46,46,47,47,48,48,49,49,50,50,51,51,52,52,53,53,54,54,55,55,56,56,57,57,58,58,59,59,60,60,61,61,62,62],"right_children":[2,4,6,8,10,12,14,16,18,20,22,24,26,28,30,32,34,36,38,40,42,44,46,48,50,52,54,56,58,60,62,64,-1,66,68,70,72,74,76,-1,78,80,-1,82,84,86,88,90,92,94,96,98,100,102,104,106,108,110,112,114,116,118,120,-1,-1,-1,-1,-1,-1,-1,-1,-1,-1,-1,-1,-1,-1,-1,-1,-1,-1,-1,-1,-1,-1,-1,-1,-1,-1,-1,-1,-1,-1,-1,-1,-1,-1,-1,-1,-1,-1,-1,-1,-1,-1,-1,-1,-1,-1,-1,-1,-1,-1,-1,-1,-1,-1,-1,-1,-1,-1],"split_conditions":[4E-1,2.705642E1,2.4866835E1,1.4934577E1,6.696387E0,3.76263E1,8.39657E0,1.4406415E1,1.3933499E1,1.9014073E2,4.730211E1,1.4113653E1,2.2460588E1,9.459418E1,1.6414409E2,6.367422E1,7.69592E0,2.0771093E1,1.6744904E2,2.7315165E1,5.95906E0,1.3905509E1,1.1457958E1,1.3200001E1,1.4000001E0,8.700001E0,1.4799999E1,3.0814703E1,1.9767975E2,8.2E0,2.5833914E1,9.346143E0,2.0792526E1,2.5650581E1,1.4014551E2,2.4460182E1,2.6098389E1,3.0638496E1,1.8971008E1,-5.883488E-1,4.307157E1,2.9631414E1,-1.0383488E0,7.928178E0,3.9120483E1,2.7354332E1,2E-1,2.2250582E1,7.771331E0,2.049156E1,8.49225E0,8.725195E1,4.2095837E1,2.358558E1,1.0315115E1,2.9421658E1,2.7471415E1,2.5093918E1,2.1327164E2,2.7315165E1,1.5603754E2,1.4E1,1.4404499E1,1.5063239E1,1.03506775E1,1.3937425E1,2.505688E0,6.1199007E0,1.0254427E1,4.788684E0,8.425465E0,-1.1388335E0,4.3229494E0,-2.295569E0,1.6586361E0,1.1390972E1,2.543426E1,5.567477E0,1.3391403E1,1.4155351E0,1.6165124E-1,-4.8921103E0,4.2788243E0,-3.1104624E0,2.8575478E0,-7.6613584E0,-6.5432334E-1,-7.477426E0,-1.2540655E1,5.7010746E0,-4.4891324E0,8.387381E0,-4.885355E0,4.4334025E0,-7.254506E0,-1.1045439E1,-5.536281E0,6.914992E0,1.2890035E1,-2.5283623E0,6.8626027E0,7.4965777E0,2.5014057E0,-8.803256E0,-7.358638E-1,1.0030023E0,-1.2432523E1,6.1096478E0,-2.5943122E0,6.2155356E0,-3.66212E0,1.1087379E1,-2.0604212E0,-1.1807388E0,-5.1519136E0,-7.944533E0,4.442477E0,2.1718343E-4,-9.36658E0,-8.64632E0,-1.1261845E1],"split_indices":[1,0,0,2,2,3,2,0,0,3,3,2,0,3,3,3,2,2,3,0,2,2,2,1,1,1,1,3,3,1,0,2,0,0,3,3,3,3,2,0,3,0,0,2,3,0,1,0,2,2,0,3,3,0,2,3,0,0,3,0,3,1,2,0,0,0,0,0,0,0,0,0,0,0,0,0,0,0,0,0,0,0,0,0,0,0,0,0,0,0,0,0,0,0,0,0,0,0,0,0,0,0,0,0,0,0,0,0,0,0,0,0,0,0,0,0,0,0,0,0,0],"split_type":[0,0,0,0,0,0,0,0,0,0,0,0,0,0,0,0,0,0,0,0,0,0,0,0,0,0,0,0,0,0,0,0,0,0,0,0,0,0,0,0,0,0,0,0,0,0,0,0,0,0,0,0,0,0,0,0,0,0,0,0,0,0,0,0,0,0,0,0,0,0,0,0,0,0,0,0,0,0,0,0,0,0,0,0,0,0,0,0,0,0,0,0,0,0,0,0,0,0,0,0,0,0,0,0,0,0,0,0,0,0,0,0,0,0,0,0,0,0,0,0,0],"sum_hessian":[4.094E3,1.481E3,2.613E3,1.251E3,2.3E2,1.61E3,1.003E3,5.92E2,6.59E2,1.4E1,2.16E2,1.035E3,5.75E2,1.41E2,8.62E2,2.06E2,3.86E2,2.99E2,3.6E2,1E1,4E0,1.01E2,1.15E2,2.93E2,7.42E2,3.58E2,2.17E2,4.9E1,9.2E1,2.65E2,5.97E2,1.77E2,2.9E1,6E1,3.26E2,1.96E2,1.03E2,3.45E2,1.5E1,1E0,9E0,3E0,1E0,3.8E1,6.3E1,6.9E1,4.6E1,2.14E2,7.9E1,1E2,6.42E2,2.27E2,1.31E2,1.2E2,9.7E1,1.3E1,3.6E1,6.8E1,2.4E1,1.86E2,7.9E1,8.2E1,5.15E2,5.1E1,1.26E2,5.4E1,6E0,2.41E2,8.5E1,6.9E1,1.27E2,3.8E1,6.5E1,1.91E2,1.54E2,9E0,6E0,3E0,6E0,2E0,1E0,7E0,3.1E1,5.3E1,1E1,4E0,6.5E1,3.1E1,1.5E1,1.89E2,2.5E1,8E0,7.1E1,6.6E1,3.4E1,1.71E2,4.71E2,7.4E1,1.53E2,1.3E1,1.18E2,5.6E1,6.4E1,3E1,6.7E1,1E1,3E0,3E1,6E0,2E0,6.6E1,8E0,1.6E1,7.9E1,1.07E2,7.6E1,3E0,2.6E1,5.6E1,2.55E2,2.6E2],"tree_param":{"num_deleted":"0","num_feature":"4","num_nodes":"121","size_leaf_vector":"1"}},{"base_weights":[2.3391206E-2,1.1399962E1,-6.4265327E0,1.7120386E1,3.1025822E0,-1.1440675E-1,-1.5964343E1,2.2041029E1,-2.4643025E0,1.215864E1,-3.2048507E0,-8.5502615E0,1.5695333E1,9.620091E-1,-1.8509035E1,4.116632E1,2.041324E1,1.9511372E1,-4.4714856E0,-2.0067706E0,1.5727873E1,-4.3786206E0,3.8080208E1,1.4416988E1,-1.2836802E1,2.1735373E1,2.137269E0,9.2794075E0,-5.0801296E0,-7.640801E0,-2.1272022E1,7.4082704E0,4.445983E1,2.6637354E1,1.6735249E1,2.6028568E1,1.2712647E0,2.6683075E0,-9.610162E0,-4.44379E0,2.7739155E1,2.3051903E1,1.13941555E1,-1.0506717E1,-2.2754613E-2,3.4328686E1,4.6894054E0,3.2603962E1,7.571242E0,-6.0855737E0,-1.9991474E1,2.9127388E1,1.531909E1,7.679944E0,-1.5489194E1,-1.1940032E1,1.6302412E1,1.5264783E1,-8.204615E0,-2.4664447E0,-1.3441036E1,-1.3165784E1,-2.266323E1,3.4985626E0,-2.0789623E0,1.6532993E1,1.0564369E1,7.0902677E0,1.3400394E1,5.455308E0,1.2803999E0,-5.0009656E-1,8.689447E0,9.1802275E-1,-8.82597E-1,6.381308E0,1.6769536E-1,-8.9134234E-1,-6.966205E0,4.8593226E-1,-3.9041307E0,1.1330442E1,-3.5216904E-1,-5.15653E-1,8.534265E0,-1.7737594E0,5.1133084E0,-2.3220127E0,-6.861564E0,2.2716048E0,-1.8455003E0,6.0996156E0,-4.8108754E0,1.0990713E1,-5.0617332E0,8.829593E0,1.2405757E0,-2.8063756E-1,-6.2319293E0,-7.301684E0,-7.7129287E-1,4.299137E0,1.0196387E1,-5.5749307E0,5.664638E0,2.8418167E0,-5.242647E0,-1.078682E1,-1.7340838E0,-2.1954526E-1,-7.393463E0,3.8553703E0,1.2195409E1,-1.2358521E0,6.0090384E0,-2.9941192E0,2.760962E0,5.2274456E0,-1.9532528E0,-1.6209999E0,-5.548605E0,-2.8547022E0,-6.249081E0,-5.4992375E0,-7.6825323E0],"categories":[],"categories_nodes":[],"categories_segments":[],"categories_sizes":[],"default_left":[0,0,0,0,0,0,0,0,0,0,0,0,0,0,0,0,0,0,0,0,0,0,0,0,0,0,0,0,0,0,0,0,0,0,0,0,0,0,0,0,0,0,0,0,0,0,0,0,0,0,0,0,0,0,0,0,0,0,0,0,0,0,0,0,0,0,0,0,0,0,0,0,0,0,0,0,0,0,0,0,0,0,0,0,0,0,0,0,0,0,0,0,0,0,0,0,0,0,0,0,0,0,0,0,0,0,0,0,0,0,0,0,0,0,0,0,0,0,0,0,0,0,0,0,0],"id":1,"left_children":[1,3,5,7,9,11,13,15,17,19,21,23,25,27,29,31,33,35,37,39,41,43,45,47,49,51,53,55,57,59,61,63,65,67,69,71,73,75,77,79,81,83,85,87,89,-1,91,93,95,97,99,101,103,105,107,109,111,113,115,117,119,121,123,-1,-1,-1,-1,-1,-1,-1,-1,-1,-1,-1,-1,-1,-1,-1,-1,-1,-1,-1,-1,-1,-1,-1,-1,-1,-1,-1,-1,-1,-1,-1,-1,-1,-1,-1,-1,-1,-1,-1,-1,-1,-1,-1,-1,-1,-1,-1,-1,-1,-1,-1,-1,-1,-1,-1,-1,-1,-1,-1,-1,-1,-1],"loss_changes":[3.0055625E5,7.028933E4,1.5737103E5,8.457011E4,3.4653977E4,2.1005647E5,4.4856125E4,2.0983125E4,7.8945737E3,1.262091E4,1.7515117E4,1.01293266E5,4.4829953E4,6.932059E3,2.7013531E4,5.674492E3,1.4388406E4,1.7500259E3,6.005963E3,3.8203281E3,6.0536562E3,9.315676E3,2.4956854E4,1.9922703E4,4.170858E4,1.7529469E4,1.6727574E4,8.838056E3,5.2106304E3,5.519158E3,7.8326562E3,4.4674808E2,2.884039E3,1.188575E4,7.329633E3,9.428179E2,4.6686295E1,2.6956106E3,8.515258E3,2.5153809E3,1.2042095E3,9.805648E3,1.2519641E4,4.7834766E3,9.5888545E3,0E0,2.9196821E3,9.395094E3,8.816768E3,3.3792734E4,3.1746188E4,1.2099203E4,2.5113812E4,6.0282954E3,7.9393213E3,2.1179436E3,3.1750137E3,1.098615E3,2.2557275E3,8.077821E3,3.4344443E3,2.8232168E3,7.3651875E3,0E0,0E0,0E0,0E0,0E0,0E0,0E0,0E0,0E0,0E0,0E0,0E0,0E0,0E0,0E0,0E0,0E0,0E0,0E0,0E0,0E0,0E0,0E0,0E0,0E0,0E0,0E0,0E0,0E0,0E0,0E0,0E0,0E0,0E0,0E0,0E0,0E0,0E0,0E0,0E0,0E0,0E0,0E0,0E0,0E0,0E0,0E0,0E0,0E0,0E0,0E0,0E0,0E0,0E0,0E0,0E0,0E0,0E0,0E0,0E0,0E0,0E0],"parents":[2147483647,0,0,1,1,2,2,3,3,4,4,5,5,6,6,7,7,8,8,9,9,10,10,11,11,12,12,13,13,14,14,15,15,16,16,17,17,18,18,19,19,20,20,21,21,22,22,23,23,24,24,25,25,26,26,27,27,28,28,29,29,30,30,31,31,32,32,33,33,34,34,35,35,36,36,37,37,38,38,39,39,40,40,41,41,42,42,43,43,44,44,46,46,47,47,48,48,49,49,50,50,51,51,52,52,53,53,54,54,55,55,56,56,57,57,58,58,59,59,60,60,61,61,62,62],"right_children":[2,4,6,8,10,12,14,16,18,20,22,24,26,28,30,32,34,36,38,40,42,44,46,48,50,52,54,56,58,60,62,64,66,68,70,72,74,76,78,80,82,84,86,88,90,-1,92,94,96,98,100,102,104,106,108,110,112,114,116,118,120,122,124,-1,-1,-1,-1,-1,-1,-1,-1,-1,-1,-1,-1,-1,-1,-1,-1,-1,-1,-1,-1,-1,-1,-1,-1,-1,-1,-1,-1,-1,-1,-1,-1,-1,-1,-1,-1,-1,-1,-1,-1,-1,-1,-1,-1,-1,-1,-1,-1,-1,-1,-1,-1,-1,-1,-1,-1,-1,-1,-1,-1,-1,-1],"split_conditions":[4E-1,1.6516901E1,2.4591835E1,2.705642E1,1.37585E1,3.76263E1,8.287822E0,6.696387E0,6.696387E0,6.629332E0,1.8885188E2,1.1709688E1,1.44E1,2.7000003E0,5.5560955E1,4.3349743E0,1.4406415E1,1.9014073E2,1.0869909E2,3.76263E1,1.8971008E1,2.9678377E1,1.7925169E1,2.7E0,1.9083395E1,1.9725168E1,2.3716835E1,8E-1,2.5093918E1,1.4404499E1,9.9571085E0,2.0867586E2,1.4988082E1,4.2095837E1,2E-1,2.7315165E1,5.95906E0,2.7560999E1,1.1457958E1,2.8555344E1,3.876754E1,1.6766108E1,2.4016329E1,2.420314E1,2.1975168E1,3.4328686E1,2.5650581E1,2.0425169E1,6.696387E0,1.4500001E1,2.9421658E1,4.3995014E1,4.833392E1,3.47074E2,1.0233123E1,6.489992E0,2.0187628E2,2.9421658E1,2.9077667E1,1.0000001E0,2.6887665E1,9.6E0,2.6806417E1,3.4985626E0,-2.0789623E0,1.6532993E1,1.0564369E1,7.0902677E0,1.3400394E1,5.455308E0,1.2803999E0,-5.0009656E-1,8.689447E0,9.1802275E-1,-8.82597E-1,6.381308E0,1.6769536E-1,-8.9134234E-1,-6.966205E0,4.8593226E-1,-3.9041307E0,1.1330442E1,-3.5216904E-1,-5.15653E-1,8.534265E0,-1.7737594E0,5.1133084E0,-2.3220127E0,-6.861564E0,2.2716048E0,-1.8455003E0,6.0996156E0,-4.8108754E0,1.0990713E1,-5.0617332E0,8.829593E0,1.2405757E0,-2.8063756E-1,-6.2319293E0,-7.301684E0,-7.7129287E-1,4.299137E0,1.0196387E1,-5.5749307E0,5.664638E0,2.8418167E0,-5.242647E0,-1.078682E1,-1.7340838E0,-2.1954526E-1,-7.393463E0,3.8553703E0,1.2195409E1,-1.2358521E0,6.0090384E0,-2.9941192E0,2.760962E0,5.2274456E0,-1.9532528E0,-1.6209999E0,-5.548605E0,-2.8547022E0,-6.249081E0,-5.4992375E0,-7.6825323E0],"split_indices":[1,2,0,0,0,3,2,2,2,0,3,2,1,1,3,2,0,3,3,3,2,3,0,1,2,0,0,1,0,2,2,3,0,3,1,0,2,0,2,3,3,2,3,2,0,0,0,0,2,1,3,3,3,3,2,2,3,3,0,1,0,1,0,0,0,0,0,0,0,0,0,0,0,0,0,0,0,0,0,0,0,0,0,0,0,0,0,0,0,0,0,0,0,0,0,0,0,0,0,0,0,0,0,0,0,0,0,0,0,0,0,0,0,0,0,0,0,0,0,0,0,0,0,0,0],"split_type":[0,0,0,0,0,0,0,0,0,0,0,0,0,0,0,0,0,0,0,0,0,0,0,0,0,0,0,0,0,0,0,0,0,0,0,0,0,0,0,0,0,0,0,0,0,0,0,0,0,0,0,0,0,0,0,0,0,0,0,0,0,0,0,0,0,0,0,0,0,0,0,0,0,0,0,0,0,0,0,0,0,0,0,0,0,0,0,0,0,0,0,0,0,0,0,0,0,0,0,0,0,0,0,0,0,0,0,0,0,0,0,0,0,0,0,0,0,0,0,0,0,0,0,0,0],"sum_hessian":[4.094E3,1.481E3,2.613E3,8.76E2,6.05E2,1.573E3,1.04E3,7E2,1.76E2,2.48E2,3.57E2,1.026E3,5.47E2,1.36E2,9.04E2,5.3E1,6.47E2,1.4E1,1.62E2,5E1,1.98E2,3.48E2,9E0,1.61E2,8.65E2,3.78E2,1.69E2,5.7E1,7.9E1,1.84E2,7.2E2,5E0,4.8E1,2.38E2,4.09E2,1E1,4E0,6.8E1,9.4E1,4.7E1,3E0,7.2E1,1.26E2,1.44E2,2.04E2,2E0,7E0,4.3E1,1.18E2,4.46E2,4.19E2,1.74E2,2.04E2,1.29E2,4E1,1.4E1,4.3E1,1E1,6.9E1,9.8E1,8.6E1,1.07E2,6.13E2,4E0,1E0,2E1,2.8E1,2.06E2,3.2E1,3.66E2,4.3E1,1E0,9E0,3E0,1E0,6E0,6.2E1,6.4E1,3E1,2.8E1,1.9E1,2E0,1E0,1.3E1,5.9E1,3.1E1,9.5E1,1.19E2,2.5E1,9.1E1,1.13E2,4E0,3E0,4E1,3E0,1.5E1,1.03E2,3.31E2,1.15E2,3.35E2,8.4E1,4.4E1,1.3E2,1.9E1,1.85E2,1.21E2,8E0,1.2E1,2.8E1,8E0,6E0,3.9E1,4E0,2E0,8E0,6.3E1,6E0,1.6E1,8.2E1,3.4E1,5.2E1,7.4E1,3.3E1,2.51E2,3.62E2],"tree_param":{"num_deleted":"0","num_feature":"4","num_nodes":"125","size_leaf_vector":"1"}},{"base_weights":[3.9892837E-2,6.967109E0,-5.5214114E0,1.0222288E1,-5.8091645E0,-1.0053422E0,-1.2037066E1,1.5611499E1,3.5136201E0,6.9775E-1,-9.939972E0,-7.581258E0,1.2371419E1,2.8255365E0,-1.3382021E1,3.1148844E1,1.4206538E1,2.218474E0,3.215888E1,3.2575028E0,-1.0609966E1,-6.87271E0,-1.8557384E1,9.055753E0,-1.0705779E1,2.57706E1,8.929901E0,7.029677E0,-9.717955E0,-1.2271295E1,-2.3538502E1,1.156003E1,3.291506E1,1.6528131E1,7.7117376E0,8.460207E0,-3.1196094E0,4.450776E1,1.1984726E1,5.6871843E0,-7.713692E0,-1.4733062E1,1.0478262E1,4.2573613E-1,-9.605672E0,-2.0317936E1,-1.2038569E1,2.981817E1,6.0178227E0,-2.0470015E1,-7.477838E0,2.7679949E1,-5.5736365E0,1.7085909E1,4.621047E0,2.1879694E1,2.7726576E0,3.0662453E0,-1.3837786E1,-1.6580808E0,-1.3923642E1,-2.8741137E1,-8.716796E0,7.290176E0,4.8110735E-1,1.2022792E1,7.4770103E0,4.430753E0,7.508564E0,-8.22233E0,2.6307173E0,3.961111E0,4.0614444E-1,-2.6586778E0,1.5058684E-1,7.260842E0,1.6890285E1,1.533153E0,6.175958E0,3.9669046E0,-4.5506254E-1,-8.0826435E0,-5.8317506E-1,-2.0026228E0,-6.4688883E0,4.7825985E0,-1.7064996E0,-4.0990806E0,9.698881E-1,1.7202558E-1,-4.050227E0,-2.3542047E0,-6.402954E0,-4.1005015E0,1.6167299E0,1.4564065E1,1.7086082E0,-2.1701595E-1,3.5334947E0,7.2714977E0,-6.39781E0,3.0205355E0,-3.0194724E0,4.736129E0,9.630091E0,3.8801184E0,-8.5176735E0,9.262849E-3,6.511398E0,2.2466176E0,-1.5778604E0,-2.839682E0,7.5841813E0,-1.0320947E0,4.18173E0,-5.139102E0,2.171274E0,-4.330028E0,1.1666398E0,-2.3309627E0,-4.859847E0,-3.0027745E0,-9.180789E0,1.5264987E0,-6.5386567E0],"categories":[],"categories_nodes":[],"categories_segments":[],"categories_sizes":[],"default_left":[0,0,0,0,0,0,0,0,0,0,0,0,0,0,0,0,0,0,0,0,0,0,0,0,0,0,0,0,0,0,0,0,0,0,0,0,0,0,0,0,0,0,0,0,0,0,0,0,0,0,0,0,0,0,0,0,0,0,0,0,0,0,0,0,0,0,0,0,0,0,0,0,0,0,0,0,0,0,0,0,0,0,0,0,0,0,0,0,0,0,0,0,0,0,0,0,0,0,0,0,0,0,0,0,0,0,0,0,0,0,0,0,0,0,0,0,0,0,0,0,0,0,0,0,0],"id":2,"left_children":[1,3,5,7,9,11,13,15,17,19,21,23,25,27,29,31,33,35,37,39,41,43,45,47,49,51,53,55,57,59,61,63,65,67,69,71,73,75,77,79,81,83,85,87,89,91,93,95,97,99,101,103,105,107,109,111,113,-1,115,117,119,121,123,-1,-1,-1,-1,-1,-1,-1,-1,-1,-1,-1,-1,-1,-1,-1,-1,-1,-1,-1,-1,-1,-1,-1,-1,-1,-1,-1,-1,-1,-1,-1,-1,-1,-1,-1,-1,-1,-1,-1,-1,-1,-1,-1,-1,-1,-1,-1,-1,-1,-1,-1,-1,-1,-1,-1,-1,-1,-1,-1,-1,-1,-1],"loss_changes":[1.5779572E5,7.591783E4,6.684184E4,5.2513688E4,9.978976E3,1.1823005E5,1.8628047E4,1.7151953E4,2.4006426E4,4.2315815E3,5.872492E3,4.693335E4,2.0198172E4,4.181613E3,9.333906E3,1.9029688E3,1.1045547E4,2.0750744E4,6.4421777E3,3.2159937E3,2.5019937E3,3.375026E3,4.3252734E2,8.840254E3,2.3769375E4,5.5405156E3,1.2361686E4,3.6691265E3,1.7843208E3,1.3497734E4,6.149758E3,8.4897437E2,2.4348438E3,7.7791094E3,7.5554473E3,9.65665E3,6.992368E3,2.7081836E3,6.0436E2,5.340338E3,2.3883914E3,1.1218159E3,5.3233307E2,1.9031146E3,4.884497E3,4.0785547E2,4.9970605E2,7.855711E3,4.901439E3,7.711883E3,2.6066398E4,3.9617266E3,2.9010908E3,9.609629E3,6.6412847E3,1.6251289E3,3.3086648E3,0E0,1.3036423E3,7.4967754E3,9.215484E3,1.8207148E3,4.2636313E3,0E0,0E0,0E0,0E0,0E0,0E0,0E0,0E0,0E0,0E0,0E0,0E0,0E0,0E0,0E0,0E0,0E0,0E0,0E0,0E0,0E0,0E0,0E0,0E0,0E0,0E0,0E0,0E0,0E0,0E0,0E0,0E0,0E0,0E0,0E0,0E0,0E0,0E0,0E0,0E0,0E0,0E0,0E0,0E0,0E0,0E0,0E0,0E0,0E0,0E0,0E0,0E0,0E0,0E0,0E0,0E0,0E0,0E0,0E0,0E0,0E0,0E0],"parents":[2147483647,0,0,1,1,2,2,3,3,4,4,5,5,6,6,7,7,8,8,9,9,10,10,11,11,12,12,13,13,14,14,15,15,16,16,17,17,18,18,19,19,20,20,21,21,22,22,23,23,24,24,25,25,26,26,27,27,28,28,29,29,30,30,31,31,32,32,33,33,34,34,35,35,36,36,37,37,38,38,39,39,40,40,41,41,42,42,43,43,44,44,45,45,46,46,47,47,48,48,49,49,50,50,51,51,52,52,53,53,54,54,55,55,56,56,58,58,59,59,60,60,61,61,62,62],"right_children":[2,4,6,8,10,12,14,16,18,20,22,24,26,28,30,32,34,36,38,40,42,44,46,48,50,52,54,56,58,60,62,64,66,68,70,72,74,76,78,80,82,84,86,88,90,92,94,96,98,100,102,104,106,108,110,112,114,-1,116,118,120,122,124,-1,-1,-1,-1,-1,-1,-1,-1,-1,-1,-1,-1,-1,-1,-1,-1,-1,-1,-1,-1,-1,-1,-1,-1,-1,-1,-1,-1,-1,-1,-1,-1,-1,-1,-1,-1,-1,-1,-1,-1,-1,-1,-1,-1,-1,-1,-1,-1,-1,-1,-1,-1,-1,-1,-1,-1,-1,-1,-1,-1,-1,-1],"split_conditions":[1.1E0,2.705642E1,2.4093918E1,1.6203999E1,1E-1,3.7898045E1,7.289445E0,6.696387E0,7.61303E1,2.9925169E1,1.5844089E1,1.1709688E1,3.0000002E0,1.0499999E1,3.5500004E1,4.3349743E0,2.2150583E1,1.37585E1,2.106267E1,2.0465244E2,2.3484108E2,1.0869909E2,2.026899E1,6.6185193E0,8.49225E0,2.358558E1,1.9614752E1,2.557975E1,6.9070816E1,2.5198088E1,1.7709658E1,1.35335E1,1.7487665E1,1.4517543E2,2.232725E1,2.0771093E1,2.809932E1,1.8374111E1,8E-1,1.3905509E1,2.1327164E2,6.367422E1,3.5710553E2,2.3293463E1,8.287822E0,2.7471415E1,2.9818914E1,8.700001E0,9.686609E0,1.1000001E0,1.7751638E1,9.459418E1,1.7756807E2,4.2542614E1,3.0599997E1,1.7252748E1,6.6185193E0,3.0662453E0,2.7354332E1,6.155718E1,1.4517543E2,3.876754E1,1.9523155E1,7.290176E0,4.8110735E-1,1.2022792E1,7.4770103E0,4.430753E0,7.508564E0,-8.22233E0,2.6307173E0,3.961111E0,4.0614444E-1,-2.6586778E0,1.5058684E-1,7.260842E0,1.6890285E1,1.533153E0,6.175958E0,3.9669046E0,-4.5506254E-1,-8.0826435E0,-5.8317506E-1,-2.0026228E0,-6.4688883E0,4.7825985E0,-1.7064996E0,-4.0990806E0,9.698881E-1,1.7202558E-1,-4.050227E0,-2.3542047E0,-6.402954E0,-4.1005015E0,1.6167299E0,1.4564065E1,1.7086082E0,-2.1701595E-1,3.5334947E0,7.2714977E0,-6.39781E0,3.0205355E0,-3.0194724E0,4.736129E0,9.630091E0,3.8801184E0,-8.5176735E0,9.262849E-3,6.511398E0,2.2466176E0,-1.5778604E0,-2.839682E0,7.5841813E0,-1.0320947E0,4.18173E0,-5.139102E0,2.171274E0,-4.330028E0,1.1666398E0,-2.3309627E0,-4.859847E0,-3.0027745E0,-9.180789E0,1.5264987E0,-6.5386567E0],"split_indices":[1,0,0,2,1,3,2,2,3,0,2,2,1,1,1,2,0,0,0,3,3,3,2,2,0,0,0,0,3,0,2,0,0,3,0,2,3,2,1,2,3,3,3,3,2,0,0,1,2,1,3,3,3,3,1,3,2,0,0,3,3,3,2,0,0,0,0,0,0,0,0,0,0,0,0,0,0,0,0,0,0,0,0,0,0,0,0,0,0,0,0,0,0,0,0,0,0,0,0,0,0,0,0,0,0,0,0,0,0,0,0,0,0,0,0,0,0,0,0,0,0,0,0,0,0],"split_type":[0,0,0,0,0,0,0,0,0,0,0,0,0,0,0,0,0,0,0,0,0,0,0,0,0,0,0,0,0,0,0,0,0,0,0,0,0,0,0,0,0,0,0,0,0,0,0,0,0,0,0,0,0,0,0,0,0,0,0,0,0,0,0,0,0,0,0,0,0,0,0,0,0,0,0,0,0,0,0,0,0,0,0,0,0,0,0,0,0,0,0,0,0,0,0,0,0,0,0,0,0,0,0,0,0,0,0,0,0,0,0,0,0,0,0,0,0,0,0,0,0,0,0,0,0],"sum_hessian":[4.094E3,1.823E3,2.271E3,1.453E3,3.7E2,1.342E3,9.29E2,8.05E2,6.48E2,1.44E2,2.26E2,9E2,4.42E2,7.7E1,8.52E2,6.5E1,7.4E2,6.21E2,2.7E1,1.18E2,2.6E1,1.68E2,5.8E1,1.42E2,7.58E2,8.9E1,3.53E2,5.8E1,1.9E1,7.7E2,8.2E1,6E0,5.9E1,5.44E2,1.96E2,2.86E2,3.35E2,1.6E1,1.1E1,9.7E1,2.1E1,2.2E1,4E0,4.6E1,1.22E2,4.4E1,1.4E1,1.7E1,1.25E2,1.87E2,5.71E2,8.4E1,5E0,1.21E2,2.32E2,1.2E1,4.6E1,3E0,1.6E1,1.04E2,6.66E2,6E1,2.2E1,2E0,4E0,2.9E1,3E1,4.53E2,9.1E1,5E0,1.91E2,1.71E2,1.15E2,1.29E2,2.06E2,7E0,9E0,7E0,4E0,4.7E1,5E1,4E0,1.7E1,1.1E1,1.1E1,3E0,1E0,7E0,3.9E1,3.4E1,8.8E1,4E0,4E1,1.3E1,1E0,9E0,8E0,5.8E1,6.7E1,3E0,1.84E2,7.3E1,4.98E2,2.4E1,6E1,3E0,2E0,2.6E1,9.5E1,1.8E2,5.2E1,1E0,1.1E1,3E1,1.6E1,1.4E1,2E0,3.1E1,7.3E1,1.81E2,4.85E2,6E0,5.4E1,1.1E1,1.1E1],"tree_param":{"num_deleted":"0","num_feature":"4","num_nodes":"125","size_leaf_vector":"1"}},{"base_weights":[4.168865E-2,6.7722745E0,-2.826793E0,1.4254966E1,3.8664393E0,7.766403E-1,-7.6515656E0,1.787972E1,7.4867787E0,5.0910525E0,-3.4634712E0,-2.8519042E0,9.935693E0,-5.239004E-1,-9.16383E0,1.0640437E1,1.9922302E1,1.1845095E1,-4.4943395E0,5.7634726E0,-7.106166E0,-4.6763687E0,2.7066502E1,9.45843E-1,-1.1669621E1,1.7457384E1,6.8245907E0,1.3503625E0,-9.0647955E0,-2.541424E0,-1.0611167E1,1.6689608E1,-1.3769078E0,2.8863522E1,1.4874653E1,1.0128726E1,1.1596301E1,-2.8042253E1,1.7771322E0,4.517358E0,2.7342823E1,4.074542E0,-1.4729743E1,1.96738E0,-1.0634904E1,5.495992E0,1.1884454E1,5.050241E0,-7.6508026E0,-1.7808945E1,-6.767394E0,2.3171978E1,7.164842E0,9.526505E0,1.5038322E0,1.2492027E1,-1.9696274E0,-5.6890264E0,-1.8285624E1,-2.2435152E1,-1.0141733E0,-7.760807E0,-1.2578946E1,3.745509E0,1.026904E1,8.411853E0,-2.7388473E0,-3.7510815E-1,9.132809E0,-2.7024622E0,4.9657907E0,7.7047367E0,2.0100207E0,-9.497611E0,-9.5153505E-1,-4.3693316E-1,8.439366E0,2.696886E0,8.14091E-1,1.2326968E1,5.666672E0,3.0107033E0,-3.6717951E0,-5.1452837E0,2.3806946E0,-4.648382E-1,5.8064537E0,-1.0893542E1,-1.419595E0,3.3790627E-1,2.1352901E0,1.1927732E1,1.2060326E0,-3.4181433E0,2.7982143E-1,2.4169998E0,-5.7209153E0,-4.774323E0,-6.93944E-1,2.6411116E0,1.0240517E1,4.0694327E0,-3.0783124E0,-1.0395852E0,3.3405051E0,9.2420816E-1,-5.873269E0,-5.28474E-1,4.8002486E0,-1.2708755E0,1.899428E0,-3.1857073E0,2.1112764E-1,-7.761986E0,-1.6569916E0,-7.9633846E0,3.337784E-2,4.2451057E-1,-4.384832E0,-6.462502E-1,-4.215163E0,-3.0844278E0,-5.0763984E0],"categories":[],"categories_nodes":[],"categories_segments":[],"categories_sizes":[],"default_left":[0,0,0,0,0,0,0,0,0,0,0,0,0,0,0,0,0,0,0,0,0,0,0,0,0,0,0,0,0,0,0,0,0,0,0,0,0,0,0,0,0,0,0,0,0,0,0,0,0,0,0,0,0,0,0,0,0,0,0,0,0,0,0,0,0,0,0,0,0,0,0,0,0,0,0,0,0,0,0,0,0,0,0,0,0,0,0,0,0,0,0,0,0,0,0,0,0,0,0,0,0,0,0,0,0,0,0,0,0,0,0,0,0,0,0,0,0,0,0,0,0,0,0],"id":3,"left_children":[1,3,5,7,9,11,13,15,17,19,21,23,25,27,29,31,33,35,37,39,41,43,45,47,49,51,53,55,57,59,61,63,65,67,69,71,-1,73,75,77,79,81,83,85,87,89,-1,91,93,95,97,99,101,103,105,107,109,111,113,115,117,119,121,-1,-1,-1,-1,-1,-1,-1,-1,-1,-1,-1,-1,-1,-1,-1,-1,-1,-1,-1,-1,-1,-1,-1,-1,-1,-1,-1,-1,-1,-1,-1,-1,-1,-1,-1,-1,-1,-1,-1,-1,-1,-1,-1,-1,-1,-1,-1,-1,-1,-1,-1,-1,-1,-1,-1,-1,-1,-1,-1,-1],"loss_changes":[7.9079516E4,2.6558895E4,4.993781E4,8.25643E3,7.94371E3,5.4698312E4,1.3231711E4,3.0706875E3,6.3715527E3,6.2496094E3,4.8293486E3,3.9492754E4,1.0809012E4,3.4699436E3,9.682492E3,3.7304229E3,7.3333984E3,3.7037744E3,4.9232773E3,1.9183752E4,3.4694966E3,4.890125E3,1.1356477E3,2.9147982E4,1.05636875E4,7.8331836E3,4.758583E3,6.608863E3,1.1099407E3,5.537283E3,4.5633516E3,2.0801523E3,4.360944E3,2.9389219E3,4.6375137E3,4.360841E3,0E0,5.2918555E2,2.3418562E3,5.4609727E3,3.7563047E3,1.7760647E3,1.4531631E3,3.6377773E3,9.68014E3,1.3240974E1,0E0,1.9827055E4,8.588875E3,5.273508E3,8.0710586E3,1.3403766E4,5.715413E3,4.6360234E3,3.8167083E3,2.0787236E3,2.6233423E3,9.5296576E2,8.2545557E2,1.2074507E3,5.6708525E3,1.2030119E4,4.714617E3,0E0,0E0,0E0,0E0,0E0,0E0,0E0,0E0,0E0,0E0,0E0,0E0,0E0,0E0,0E0,0E0,0E0,0E0,0E0,0E0,0E0,0E0,0E0,0E0,0E0,0E0,0E0,0E0,0E0,0E0,0E0,0E0,0E0,0E0,0E0,0E0,0E0,0E0,0E0,0E0,0E0,0E0,0E0,0E0,0E0,0E0,0E0,0E0,0E0,0E0,0E0,0E0,0E0,0E0,0E0,0E0,0E0,0E0,0E0,0E0],"parents":[2147483647,0,0,1,1,2,2,3,3,4,4,5,5,6,6,7,7,8,8,9,9,10,10,11,11,12,12,13,13,14,14,15,15,16,16,17,17,18,18,19,19,20,20,21,21,22,22,23,23,24,24,25,25,26,26,27,27,28,28,29,29,30,30,31,31,32,32,33,33,34,34,35,35,37,37,38,38,39,39,40,40,41,41,42,42,43,43,44,44,45,45,47,47,48,48,49,49,50,50,51,51,52,52,53,53,54,54,55,55,56,56,57,57,58,58,59,59,60,60,61,61,62,62],"right_children":[2,4,6,8,10,12,14,16,18,20,22,24,26,28,30,32,34,36,38,40,42,44,46,48,50,52,54,56,58,60,62,64,66,68,70,72,-1,74,76,78,80,82,84,86,88,90,-1,92,94,96,98,100,102,104,106,108,110,112,114,116,118,120,122,-1,-1,-1,-1,-1,-1,-1,-1,-1,-1,-1,-1,-1,-1,-1,-1,-1,-1,-1,-1,-1,-1,-1,-1,-1,-1,-1,-1,-1,-1,-1,-1,-1,-1,-1,-1,-1,-1,-1,-1,-1,-1,-1,-1,-1,-1,-1,-1,-1,-1,-1,-1,-1,-1,-1,-1,-1,-1,-1,-1],"split_conditions":[1E-1,1.1090103E1,2.4093918E1,2.2460588E1,2.27057E1,4.2542614E1,8.669949E0,1.1529334E1,1.9014073E2,2.8954332E1,2.9827904E1,2.049156E1,1.8500168E1,1.0199999E1,3.876754E1,1.0143915E1,1.4988082E1,1.0948973E1,2.0080685E2,1.6744904E2,3.3461525E1,1.5302251E1,7.131417E0,9.4E0,2.5016882E1,2.4512868E2,1.6300001E1,2.599183E1,8.209263E0,1.1956537E1,2.6806417E1,9.937665E0,1.554169E1,4.3349743E0,1.5216836E1,6.6185193E0,1.1596301E1,2.6391832E1,1.01887E1,1.1529334E1,1.8083502E1,3.0368917E1,3.0881414E1,1.2373084E1,1.7487665E1,4.3897505E0,1.1884454E1,6.6185193E0,2.912393E1,1.554169E1,1.07022505E1,1.0061955E2,1.0514218E1,6.367422E1,2.2231018E2,3.7365223E1,1.9767975E2,6.9899354E0,2.7031418E1,1.484318E1,1.3200001E1,1.4799999E1,1.5844089E1,3.745509E0,1.026904E1,8.411853E0,-2.7388473E0,-3.7510815E-1,9.132809E0,-2.7024622E0,4.9657907E0,7.7047367E0,2.0100207E0,-9.497611E0,-9.5153505E-1,-4.3693316E-1,8.439366E0,2.696886E0,8.14091E-1,1.2326968E1,5.666672E0,3.0107033E0,-3.6717951E0,-5.1452837E0,2.3806946E0,-4.648382E-1,5.8064537E0,-1.0893542E1,-1.419595E0,3.3790627E-1,2.1352901E0,1.1927732E1,1.2060326E0,-3.4181433E0,2.7982143E-1,2.4169998E0,-5.7209153E0,-4.774323E0,-6.93944E-1,2.6411116E0,1.0240517E1,4.0694327E0,-3.0783124E0,-1.0395852E0,3.3405051E0,9.2420816E-1,-5.873269E0,-5.28474E-1,4.8002486E0,-1.2708755E0,1.899428E0,-3.1857073E0,2.1112764E-1,-7.761986E0,-1.6569916E0,-7.9633846E0,3.337784E-2,4.2451057E-1,-4.384832E0,-6.462502E-1,-4.215163E0,-3.0844278E0,-5.0763984E0],"split_indices":[1,2,0,0,2,3,2,0,3,0,2,2,0,1,3,0,0,2,3,3,3,0,0,1,3,3,1,0,2,3,0,0,3,2,0,2,0,0,2,0,0,0,0,0,0,0,0,2,3,3,0,3,2,3,3,3,3,2,0,2,1,1,2,0,0,0,0,0,0,0,0,0,0,0,0,0,0,0,0,0,0,0,0,0,0,0,0,0,0,0,0,0,0,0,0,0,0,0,0,0,0,0,0,0,0,0,0,0,0,0,0,0,0,0,0,0,0,0,0,0,0,0,0],"split_type":[0,0,0,0,0,0,0,0,0,0,0,0,0,0,0,0,0,0,0,0,0,0,0,0,0,0,0,0,0,0,0,0,0,0,0,0,0,0,0,0,0,0,0,0,0,0,0,0,0,0,0,0,0,0,0,0,0,0,0,0,0,0,0,0,0,0,0,0,0,0,0,0,0,0,0,0,0,0,0,0,0,0,0,0,0,0,0,0,0,0,0,0,0,0,0,0,0,0,0,0,0,0,0,0,0,0,0,0,0,0,0,0,0,0,0,0,0,0,0,0,0,0,0],"sum_hessian":[4.094E3,1.223E3,2.871E3,3.41E2,8.82E2,1.644E3,1.227E3,2.21E2,1.2E2,7.56E2,1.26E2,1.178E3,4.66E2,2.15E2,1.012E3,5E1,1.71E2,8.8E1,3.2E1,7.17E2,3.9E1,1.22E2,4E0,8.24E2,3.54E2,1.35E2,3.31E2,1.77E2,3.8E1,1.82E2,8.3E2,3.3E1,1.7E1,6E1,1.11E2,8.4E1,4E0,6E0,2.6E1,6.79E2,3.8E1,1.6E1,2.3E1,5.8E1,6.4E1,2E0,2E0,5.58E2,2.66E2,1.56E2,1.98E2,8.6E1,4.9E1,2.19E2,1.12E2,4E1,1.37E2,2.9E1,9E0,1.2E1,1.7E2,3.41E2,4.89E2,2.8E1,5E0,3E0,1.4E1,3E0,5.7E1,7E0,1.04E2,1.4E1,7E1,5E0,1E0,2.4E1,2E0,1.94E2,4.85E2,1.3E1,2.5E1,1.2E1,4E0,2.1E1,2E0,4.9E1,9E0,1.1E1,5.3E1,1E0,1E0,1.5E1,5.43E2,1.85E2,8.1E1,7E0,1.49E2,6.4E1,1.34E2,3.8E1,4.8E1,3.6E1,1.3E1,2.4E1,1.95E2,1.05E2,7E0,8E0,3.2E1,1.08E2,2.9E1,1.6E1,1.3E1,5E0,4E0,1E1,2E0,1.45E2,2.5E1,1.81E2,1.6E2,3.22E2,1.67E2],"tree_param":{"num_deleted":"0","num_feature":"4","num_nodes":"123","size_leaf_vector":"1"}},{"base_weights":[4.2632528E-2,3.451539E0,-3.1130702E0,5.3269606E0,-3.4988916E0,4.5182314E0,-4.2534037E0,8.782506E0,2.1793904E0,-1.0553353E0,-7.6117115E0,1.3539901E1,-1.8983877E-1,-1.646381E1,-3.5318913E0,1.17626705E1,5.646359E0,1.3644028E0,1.5738764E1,-1.4746855E0,2.6571102E1,-3.8449974E0,-1.1526082E1,-4.5246816E0,1.6458977E1,3.8443806E0,-5.6698055E0,-2.7082577E1,-1.3578774E1,-9.339055E-1,-7.1401124E0,2.304641E1,1.0507522E1,-1.9485395E1,6.4894776E0,4.548602E0,-1.4416515E0,2.6941724E0,2.5669443E1,-1.9015696E0,2.6428005E1,1.1314894E1,-1.0296788E0,-5.9315343E0,1.156257E1,2.394346E0,-1.2753467E1,7.3202233E0,-1.1378982E1,2.0409521E1,1.2787386E0,6.7497997E0,-9.814633E0,-2.5374836E1,-1.7026056E0,-9.142891E0,-5.0401707E0,1.1181529E1,-1.4653437E1,-3.2916214E0,5.2615685E0,-6.5058017E0,-1.2864269E1,4.8020077E0,1.0040499E1,2.7733552E0,7.3023157E0,-8.493423E0,-1.7822441E0,1.5767043E0,6.924294E0,4.0284622E-1,3.2846925E0,5.977754E-1,-1.5773717E0,4.551019E0,-1.3882047E0,1.3521138E1,5.2786846E0,5.1885295E0,-7.0479316E-1,1.1738451E1,-1.7508729E0,-5.188904E0,-1.2100335E0,-9.1802526E-1,4.680223E0,2.1313417E0,-2.7317965E-1,-6.0107594E0,-3.222319E0,7.430672E-1,-6.488962E0,8.977795E0,4.453405E0,-4.4357576E0,4.6827006E0,-8.641912E-1,3.0010777E0,-4.0654907E0,2.2761097E0,7.8973275E-1,-8.378445E0,4.3733315E0,-1.5671195E0,-2.7606697E0,-1.7562181E-1,5.7931423E0,-4.8562927E0,1.7897683E0,-1.5030147E0,2.7088575E0,5.4434705E-1,-1.0494983E0,-2.6328297E0,-4.3690963E0,3.8460655E0],"categories":[],"categories_nodes":[],"categories_segments":[],"categories_sizes":[],"default_left":[0,0,0,0,0,0,0,0,0,0,0,0,0,0,0,0,0,0,0,0,0,0,0,0,0,0,0,0,0,0,0,0,0,0,0,0,0,0,0,0,0,0,0,0,0,0,0,0,0,0,0,0,0,0,0,0,0,0,0,0,0,0,0,0,0,0,0,0,0,0,0,0,0,0,0,0,0,0,0,0,0,0,0,0,0,0,0,0,0,0,0,0,0,0,0,0,0,0,0,0,0,0,0,0,0,0,0,0,0,0,0,0,0,0,0,0,0],"id":4,"left_children":[1,3,5,7,9,11,13,15,17,19,21,23,25,27,29,31,33,35,37,39,41,43,45,47,49,51,53,55,57,59,61,63,65,67,69,71,73,75,77,79,81,-1,-1,83,85,87,89,-1,91,93,95,97,99,101,103,-1,105,-1,107,109,111,113,115,-1,-1,-1,-1,-1,-1,-1,-1,-1,-1,-1,-1,-1,-1,-1,-1,-1,-1,-1,-1,-1,-1,-1,-1,-1,-1,-1,-1,-1,-1,-1,-1,-1,-1,-1,-1,-1,-1,-1,-1,-1,-1,-1,-1,-1,-1,-1,-1,-1,-1,-1,-1,-1,-1],"loss_changes":[4.4062688E4,2.568453E4,1.8528861E4,1.6850418E4,4.2028774E3,1.1768049E4,1.6249086E4,6.840453E3,8.962764E3,3.0976646E3,2.2557969E3,5.084002E3,4.0674492E3,2.787711E3,1.6388646E4,5.111367E3,7.7968877E3,6.8686646E3,5.889758E3,3.1590813E3,1.4670271E3,2.672609E3,1.3290498E3,3.053345E3,4.891459E3,4.272874E3,6.0543525E3,1.4173174E3,5.081874E3,1.4887416E4,2.574121E3,2.178875E3,5.750336E3,1.2663433E3,7.0638564E3,7.371848E3,5.3707974E3,1.9883896E3,3.2796094E3,2.2581755E3,1.8674062E3,0E0,0E0,1.4833794E3,6.382278E2,1.15436264E2,8.1065234E2,0E0,1.7579955E3,2.997998E3,4.374571E3,2.7863352E3,1.3383877E3,1.003166E3,3.8596172E3,0E0,6.877699E1,0E0,4.585414E3,1.1770266E4,3.6333667E3,4.4825117E3,3.3293535E3,0E0,0E0,0E0,0E0,0E0,0E0,0E0,0E0,0E0,0E0,0E0,0E0,0E0,0E0,0E0,0E0,0E0,0E0,0E0,0E0,0E0,0E0,0E0,0E0,0E0,0E0,0E0,0E0,0E0,0E0,0E0,0E0,0E0,0E0,0E0,0E0,0E0,0E0,0E0,0E0,0E0,0E0,0E0,0E0,0E0,0E0,0E0,0E0,0E0,0E0,0E0,0E0,0E0,0E0],"parents":[2147483647,0,0,1,1,2,2,3,3,4,4,5,5,6,6,7,7,8,8,9,9,10,10,11,11,12,12,13,13,14,14,15,15,16,16,17,17,18,18,19,19,20,20,21,21,22,22,23,23,24,24,25,25,26,26,27,27,28,28,29,29,30,30,31,31,32,32,33,33,34,34,35,35,36,36,37,37,38,38,39,39,40,40,43,43,44,44,45,45,46,46,48,48,49,49,50,50,51,51,52,52,53,53,54,54,56,56,58,58,59,59,60,60,61,61,62,62],"right_children":[2,4,6,8,10,12,14,16,18,20,22,24,26,28,30,32,34,36,38,40,42,44,46,48,50,52,54,56,58,60,62,64,66,68,70,72,74,76,78,80,82,-1,-1,84,86,88,90,-1,92,94,96,98,100,102,104,-1,106,-1,108,110,112,114,116,-1,-1,-1,-1,-1,-1,-1,-1,-1,-1,-1,-1,-1,-1,-1,-1,-1,-1,-1,-1,-1,-1,-1,-1,-1,-1,-1,-1,-1,-1,-1,-1,-1,-1,-1,-1,-1,-1,-1,-1,-1,-1,-1,-1,-1,-1,-1,-1,-1,-1,-1,-1,-1,-1],"split_conditions":[1.5000001E0,2.705642E1,8.669949E0,1.4934577E1,1.4404499E1,2.0848085E1,6.368917E0,1.8083502E1,4.833392E1,1.4291592E1,4.730211E1,1.8675955E1,1.3683444E2,1.8331741E1,2.4006416E1,1.512748E1,1.84335E1,1.35335E1,1.7447933E1,1.5E0,2.7756422E1,4.2095837E1,2.7471415E1,9.537666E0,2.5344284E2,1.77E1,6.198903E0,3.392984E1,1.8000002E0,4.3995014E1,3.73E1,1.1956537E1,1.7125168E1,4.147847E1,2.6714746E1,2.9248732E1,1.9523155E1,1E-1,1.7925169E1,5.0528407E0,2.7354332E1,1.1314894E1,-1.0296788E0,1.5281989E1,1.4707222E1,1.5844089E1,1.7469019E2,7.3202233E0,6.198903E0,1.5743918E1,5.1E0,3.6150867E1,5.43E1,5.0528407E0,6.696387E0,-9.142891E0,4.7835007E0,1.1181529E1,1.4709677E1,1.7751638E1,9.2E0,2.6643919E1,2.7168922E1,4.8020077E0,1.0040499E1,2.7733552E0,7.3023157E0,-8.493423E0,-1.7822441E0,1.5767043E0,6.924294E0,4.0284622E-1,3.2846925E0,5.977754E-1,-1.5773717E0,4.551019E0,-1.3882047E0,1.3521138E1,5.2786846E0,5.1885295E0,-7.0479316E-1,1.1738451E1,-1.7508729E0,-5.188904E0,-1.2100335E0,-9.1802526E-1,4.680223E0,2.1313417E0,-2.7317965E-1,-6.0107594E0,-3.222319E0,7.430672E-1,-6.488962E0,8.977795E0,4.453405E0,-4.4357576E0,4.6827006E0,-8.641912E-1,3.0010777E0,-4.0654907E0,2.2761097E0,7.8973275E-1,-8.378445E0,4.3733315E0,-1.5671195E0,-2.7606697E0,-1.7562181E-1,5.7931423E0,-4.8562927E0,1.7897683E0,-1.5030147E0,2.7088575E0,5.4434705E-1,-1.0494983E0,-2.6328297E0,-4.3690963E0,3.8460655E0],"split_indices":[1,0,2,2,2,0,0,0,3,2,3,3,3,2,0,3,0,0,2,1,0,3,0,0,3,1,2,3,1,3,1,3,0,3,0,3,2,1,0,2,0,0,0,2,2,2,3,0,2,0,1,3,1,2,2,0,0,0,3,3,1,0,0,0,0,0,0,0,0,0,0,0,0,0,0,0,0,0,0,0,0,0,0,0,0,0,0,0,0,0,0,0,0,0,0,0,0,0,0,0,0,0,0,0,0,0,0,0,0,0,0,0,0,0,0,0,0],"split_type":[0,0,0,0,0,0,0,0,0,0,0,0,0,0,0,0,0,0,0,0,0,0,0,0,0,0,0,0,0,0,0,0,0,0,0,0,0,0,0,0,0,0,0,0,0,0,0,0,0,0,0,0,0,0,0,0,0,0,0,0,0,0,0,0,0,0,0,0,0,0,0,0,0,0,0,0,0,0,0,0,0,0,0,0,0,0,0,0,0,0,0,0,0,0,0,0,0,0,0,0,0,0,0,0,0,0,0,0,0,0,0,0,0,0,0,0,0],"sum_hessian":[4.094E3,1.968E3,2.126E3,1.55E3,4.18E2,2.76E2,1.85E3,7.38E2,8.12E2,2.63E2,1.55E2,9.4E1,1.82E2,1.02E2,1.748E3,3.77E2,3.61E2,7.67E2,4.5E1,2.6E2,3E0,8E1,7.5E1,1.3E1,8.1E1,1.05E2,7.7E1,2E1,8.2E1,1.017E3,7.31E2,3.6E1,3.41E2,1.1E1,3.5E2,3.59E2,4.08E2,2E1,2.5E1,2.57E2,3E0,2E0,1E0,7.1E1,9E0,6E0,6.9E1,2E0,1.1E1,6.4E1,1.7E1,8.7E1,1.8E1,1.2E1,6.5E1,1.7E1,3E0,1E0,8.1E1,7.37E2,2.8E2,6.6E2,7.1E1,2.3E1,1.3E1,3.14E2,2.7E1,6E0,5E0,3.27E2,2.3E1,2.4E2,1.19E2,2.15E2,1.93E2,7E0,1.3E1,6E0,1.9E1,5E0,2.52E2,2E0,1E0,9E0,6.2E1,2E0,7E0,2E0,4E0,1.3E1,5.6E1,5E0,6E0,2.2E1,4.2E1,8E0,9E0,2.2E1,6.5E1,1.5E1,3E0,1E0,1.1E1,1.1E1,5.4E1,1E0,2E0,3E0,7.8E1,1.15E2,6.22E2,1.33E2,1.47E2,2.85E2,3.75E2,6.7E1,4E0],"tree_param":{"num_deleted":"0","num_feature":"4","num_nodes":"117","size_leaf_vector":"1"}},{"base_weights":[4.7607664E-2,1.3089865E0,-4.412669E0,2.8115494E0,-3.0355823E0,4.1505594E0,-5.103922E0,1.4508121E1,2.1930556E0,9.165753E-1,-4.8688755E0,1.3588774E1,-3.2160296E0,-8.523604E0,-3.484275E0,2.632191E0,1.606651E1,3.0637283E0,-4.962519E0,4.4934125E0,-3.2590497E0,-3.238043E0,-9.008037E0,-6.5077333E0,1.688359E1,-4.779616E0,8.4300375E0,-9.527592E0,1.5799331E1,2.4400592E0,-5.5918126E0,1.2187682E1,-7.252324E0,2.2264248E1,1.1909989E1,-2.4267237E0,3.7637057E0,-1.2439577E1,5.485833E-1,6.364665E0,-7.145897E0,-1.5436742E1,-2.2603037E0,1.2154553E1,-3.5796978E0,1.0203916E1,-1.01007E1,1.346441E1,1.2266589E1,-9.508117E-1,-1.2069562E1,-2.9768953E0,-1.2785632E1,-8.181944E0,2.2833893E1,3.509503E1,1.0719908E0,-7.6806335E0,-2.5052805E0,-1.1410836E0,4.5046577E0,1.8577195E0,-4.967291E0,7.5585303E0,2.9052544E-1,2.2790806E0,5.6884756E0,-5.5611434E0,-1.5863644E-1,4.178049E0,9.3595123E-1,-4.6290555E0,6.2527223E0,-2.3169352E-1,7.839996E0,4.417142E0,7.2235966E-1,-3.4458501E0,3.9260178E0,-5.947484E0,-2.3883574E0,-1.7722995E0,4.673048E-1,4.5574346E0,3.05085E-1,-1.4986913E0,1.6515513E-1,4.905566E0,-2.2627962E0,-3.1764655E0,3.102217E0,4.594566E0,-4.9208727E0,2.0313175E0,-4.194873E0,-6.7203555E0,1.1152581E0,2.430953E0,-1.8575888E0,-2.311868E0,-4.990069E0,9.180104E0,-7.0596304E0,-3.2794123E0,1.3945977E1,-2.921808E0,1.0547935E0,-1.7609437E0,-4.198229E0,7.7320665E-1,-2.038755E0],"categories":[],"categories_nodes":[],"categories_segments":[],"categories_sizes":[],"default_left":[0,0,0,0,0,0,0,0,0,0,0,0,0,0,0,0,0,0,0,0,0,0,0,0,0,0,0,0,0,0,0,0,0,0,0,0,0,0,0,0,0,0,0,0,0,0,0,0,0,0,0,0,0,0,0,0,0,0,0,0,0,0,0,0,0,0,0,0,0,0,0,0,0,0,0,0,0,0,0,0,0,0,0,0,0,0,0,0,0,0,0,0,0,0,0,0,0,0,0,0,0,0,0,0,0,0,0,0,0,0,0],"id":5,"left_children":[1,3,5,7,9,11,13,15,17,19,21,23,25,27,29,31,33,35,37,39,41,43,45,-1,47,49,-1,51,53,55,57,59,61,63,65,67,69,71,73,75,77,79,81,83,85,87,89,91,-1,93,95,97,99,-1,101,103,105,107,109,-1,-1,-1,-1,-1,-1,-1,-1,-1,-1,-1,-1,-1,-1,-1,-1,-1,-1,-1,-1,-1,-1,-1,-1,-1,-1,-1,-1,-1,-1,-1,-1,-1,-1,-1,-1,-1,-1,-1,-1,-1,-1,-1,-1,-1,-1,-1,-1,-1,-1,-1,-1],"loss_changes":[2.3044652E4,2.0852402E4,5.3663555E3,1.7135072E4,5.952989E3,4.7715684E3,4.6006367E3,2.1600781E3,1.4064222E4,3.912818E3,3.7577393E3,3.853601E3,2.0439626E3,6.6950664E3,7.1180405E3,1.50516E3,2.4397422E3,7.737791E3,1.0102499E4,3.116473E3,1.4367612E3,2.168128E3,3.419834E3,0E0,1.7476313E3,1.0491716E3,0E0,5.468287E3,3.9557075E3,6.6635127E3,2.688587E3,4.1888025E2,1.1033903E3,2.5346133E3,1.8328545E3,6.9616494E3,1.1630535E4,1.0673069E4,4.819037E3,3.999751E3,1.9066172E3,1.3740771E2,1.5827922E3,2.8896448E2,2.3186113E3,1.1052852E3,1.6043203E3,1.68846E3,0E0,2.711115E3,2.2036582E3,3.1493901E3,3.2335918E3,0E0,4.321085E3,3.6540366E3,3.8655498E3,2.775996E3,3.746581E3,0E0,0E0,0E0,0E0,0E0,0E0,0E0,0E0,0E0,0E0,0E0,0E0,0E0,0E0,0E0,0E0,0E0,0E0,0E0,0E0,0E0,0E0,0E0,0E0,0E0,0E0,0E0,0E0,0E0,0E0,0E0,0E0,0E0,0E0,0E0,0E0,0E0,0E0,0E0,0E0,0E0,0E0,0E0,0E0,0E0,0E0,0E0,0E0,0E0,0E0,0E0,0E0],"parents":[2147483647,0,0,1,1,2,2,3,3,4,4,5,5,6,6,7,7,8,8,9,9,10,10,11,11,12,12,13,13,14,14,15,15,16,16,17,17,18,18,19,19,20,20,21,21,22,22,24,24,25,25,27,27,28,28,29,29,30,30,31,31,32,32,33,33,34,34,35,35,36,36,37,37,38,38,39,39,40,40,41,41,42,42,43,43,44,44,45,45,46,46,47,47,49,49,50,50,51,51,52,52,54,54,55,55,56,56,57,57,58,58],"right_children":[2,4,6,8,10,12,14,16,18,20,22,24,26,28,30,32,34,36,38,40,42,44,46,-1,48,50,-1,52,54,56,58,60,62,64,66,68,70,72,74,76,78,80,82,84,86,88,90,92,-1,94,96,98,100,-1,102,104,106,108,110,-1,-1,-1,-1,-1,-1,-1,-1,-1,-1,-1,-1,-1,-1,-1,-1,-1,-1,-1,-1,-1,-1,-1,-1,-1,-1,-1,-1,-1,-1,-1,-1,-1,-1,-1,-1,-1,-1,-1,-1,-1,-1,-1,-1,-1,-1,-1,-1,-1,-1,-1,-1],"split_conditions":[1.03E1,2.650225E1,7.771331E0,6.696387E0,6.155718E1,2.1144331E1,2.9421658E1,1.7252748E1,2.3051247E1,1.4404499E1,1.5124284E1,1.1E1,7.6367526E0,5.43E1,2.232725E1,6.8852997E0,5.5560955E1,8.1797495E0,2.681086E1,5.1E0,2.010397E1,5.3517847E0,2.6846413E1,-6.5077333E0,3.8399998E1,1.9000002E1,8.4300375E0,1.5542662E1,1.2528798E1,2.9976925E1,1.5124284E1,4.3349743E0,1E-1,6.4999995E0,1.9621796E2,1.7252748E1,1.610779E1,2.0756418E1,2.9827904E1,2.7354332E1,2.8598082E1,2.8912666E1,2.8300163E1,1.9014073E2,2.0377235E2,1.8520412E2,2.3219301E1,3.73E1,1.2266589E1,1.4014551E2,2.4006416E1,1.3200001E1,1.27022505E1,-8.181944E0,2.2756416E1,1.1299998E1,1.4406415E1,3.63E1,2.5344336E1,-1.1410836E0,4.5046577E0,1.8577195E0,-4.967291E0,7.5585303E0,2.9052544E-1,2.2790806E0,5.6884756E0,-5.5611434E0,-1.5863644E-1,4.178049E0,9.3595123E-1,-4.6290555E0,6.2527223E0,-2.3169352E-1,7.839996E0,4.417142E0,7.2235966E-1,-3.4458501E0,3.9260178E0,-5.947484E0,-2.3883574E0,-1.7722995E0,4.673048E-1,4.5574346E0,3.05085E-1,-1.4986913E0,1.6515513E-1,4.905566E0,-2.2627962E0,-3.1764655E0,3.102217E0,4.594566E0,-4.9208727E0,2.0313175E0,-4.194873E0,-6.7203555E0,1.1152581E0,2.430953E0,-1.8575888E0,-2.311868E0,-4.990069E0,9.180104E0,-7.0596304E0,-3.2794123E0,1.3945977E1,-2.921808E0,1.0547935E0,-1.7609437E0,-4.198229E0,7.7320665E-1,-2.038755E0],"split_indices":[1,0,2,2,3,0,3,3,2,2,2,1,2,1,0,3,3,0,3,1,3,2,0,0,1,1,0,2,3,3,2,2,1,1,3,3,3,0,2,0,0,0,0,3,3,3,2,1,0,3,0,1,0,0,0,1,0,1,0,0,0,0,0,0,0,0,0,0,0,0,0,0,0,0,0,0,0,0,0,0,0,0,0,0,0,0,0,0,0,0,0,0,0,0,0,0,0,0,0,0,0,0,0,0,0,0,0,0,0,0,0],"split_type":[0,0,0,0,0,0,0,0,0,0,0,0,0,0,0,0,0,0,0,0,0,0,0,0,0,0,0,0,0,0,0,0,0,0,0,0,0,0,0,0,0,0,0,0,0,0,0,0,0,0,0,0,0,0,0,0,0,0,0,0,0,0,0,0,0,0,0,0,0,0,0,0,0,0,0,0,0,0,0,0,0,0,0,0,0,0,0,0,0,0,0,0,0,0,0,0,0,0,0,0,0,0,0,0,0,0,0,0,0,0,0],"sum_hessian":[4.094E3,3.192E3,9.02E2,2.372E3,8.2E2,6.7E1,8.35E2,1.18E2,2.254E3,2.6E2,5.6E2,2.9E1,3.8E1,2.67E2,5.68E2,1.4E1,1.04E2,2.01E3,2.44E2,1.4E2,1.2E2,4.03E2,1.57E2,2E0,2.7E1,3.7E1,1E0,2.57E2,1E1,1.49E2,4.19E2,7E0,7E0,4E1,6.4E1,2.27E2,1.783E3,1.03E2,1.41E2,1.21E2,1.9E1,8E0,1.12E2,8E0,3.95E2,8E0,1.49E2,2.5E1,2E0,2.5E1,1.2E1,8.6E1,1.71E2,1E0,9E0,5E0,1.44E2,2.49E2,1.7E2,1E0,6E0,3E0,4E0,3.5E1,5E0,4.1E1,2.3E1,2.3E1,2.04E2,1.05E2,1.678E3,9.5E1,8E0,1.35E2,6E0,3.8E1,8.3E1,1.6E1,3E0,4E0,4E0,5.7E1,5.5E1,6E0,2E0,2.94E2,1.01E2,6E0,2E0,1.46E2,3E0,2.4E1,1E0,1.6E1,9E0,7E0,5E0,1.9E1,6.7E1,7.5E1,9.6E1,8E0,1E0,1E0,4E0,2.6E1,1.18E2,1.95E2,5.4E1,7.8E1,9.2E1],"tree_param":{"num_deleted":"0","num_feature":"4","num_nodes":"111","size_leaf_vector":"1"}},{"base_weights":[3.8612276E-2,1.7622142E0,-1.9751664E0,-6.9178903E-1,4.6186786E0,1.4494153E0,-2.8385134E0,6.470396E0,-2.7651205E0,1.643743E1,4.0690246E0,3.38253E0,-2.443448E0,2.0102224E0,-3.247502E0,5.7954693E0,1.2203244E1,-1.9181502E0,-1.2737434E1,1.1270767E1,3.5851772E1,2.4868643E0,7.3046813E0,4.917632E0,-2.160379E0,-4.1777997E0,7.6348557E0,8.585987E0,-9.8140585E-1,-1.377753E1,-2.9896064E0,9.797403E0,-2.2435293E-1,1.4552218E0,-4.154534E0,-1.5480099E1,5.81509E0,2.6501154E1,4.6483583E0,1.5184342E1,2.0034678E1,1.9693534E0,1.5490763E1,1.2384124E1,2.8619976E0,3.799594E0,1.601115E1,7.6833096E0,-7.025371E0,-1.1068017E1,1.3936065E-1,1.1263761E1,-4.642167E0,1.3596863E1,-6.3030615E0,-5.259911E0,1.0222582E1,-2.1774282E1,-5.9038863E0,1.1554161E1,-3.1097422E0,2.6357768E0,1.3962887E1,-7.3364244E0,6.827816E-1,2.1815707E-1,6.949163E0,3.0510542E0,-1.4918885E0,-6.024311E0,-2.8180342E0,4.563384E0,-3.6246037E0,1.0033788E1,-9.5009005E-1,3.126625E-1,7.536951E0,-2.7875004E0,8.327484E0,8.6703557E-1,-2.9529705E0,6.791761E0,-1.8375334E0,6.640578E0,8.9361304E-1,1.0238359E0,-8.791008E0,1.4330484E0,-2.0096505E0,7.270246E0,8.1093866E-1,5.059326E0,-2.1146307E0,-3.1298894E-1,-3.7071223E0,-4.4146695E0,-8.165427E-1,8.625497E0,-4.8706195E-1,4.6133475E0,-3.9183435E0,6.0790944E0,2.8117213E0,-2.6427445E0,2.4377575E0,-4.535431E0,-7.4412084E-1,4.849671E0,-2.7930431E0,-9.670891E0,-1.1153789E0,1.7208843E0,-2.8918147E0,-9.954989E-1,1.1522877E0],"categories":[],"categories_nodes":[],"categories_segments":[],"categories_sizes":[],"default_left":[0,0,0,0,0,0,0,0,0,0,0,0,0,0,0,0,0,0,0,0,0,0,0,0,0,0,0,0,0,0,0,0,0,0,0,0,0,0,0,0,0,0,0,0,0,0,0,0,0,0,0,0,0,0,0,0,0,0,0,0,0,0,0,0,0,0,0,0,0,0,0,0,0,0,0,0,0,0,0,0,0,0,0,0,0,0,0,0,0,0,0,0,0,0,0,0,0,0,0,0,0,0,0,0,0,0,0,0,0,0,0,0,0,0,0],"id":6,"left_children":[1,3,5,7,9,11,13,15,17,19,21,23,25,27,29,31,-1,33,35,37,39,41,43,45,47,49,51,53,55,57,59,61,63,65,67,69,71,73,75,-1,77,79,81,83,85,87,89,91,93,95,97,99,-1,101,103,105,107,109,111,-1,113,-1,-1,-1,-1,-1,-1,-1,-1,-1,-1,-1,-1,-1,-1,-1,-1,-1,-1,-1,-1,-1,-1,-1,-1,-1,-1,-1,-1,-1,-1,-1,-1,-1,-1,-1,-1,-1,-1,-1,-1,-1,-1,-1,-1,-1,-1,-1,-1,-1,-1,-1,-1,-1,-1],"loss_changes":[1.4217033E4,1.5473764E4,5.5891353E3,1.7659197E4,6.5592656E3,2.8754238E3,2.9989932E3,5.9285605E3,7.7630146E3,4.109754E3,4.978299E3,2.180401E3,2.251771E3,2.3297512E3,3.738996E3,6.3381123E3,0E0,6.426119E3,3.7536182E3,3.6087012E3,1.0874834E3,4.3908784E3,7.185791E3,2.4197593E3,2.7357883E3,3.243875E3,1.7676235E3,2.8461667E3,3.9845479E3,1.9492451E3,6.900801E3,5.463532E3,6.4774604E3,5.3567144E3,6.053133E3,1.5756416E3,1.8654283E3,2.372353E3,1.967368E3,0E0,1.6169512E3,6.913346E3,4.0016626E3,1.3599369E4,3.1472117E3,1.9094729E3,1.9042656E3,2.688753E3,1.1991044E3,1.238561E3,3.476642E3,1.9021135E3,0E0,5.9866064E2,4.3318314E2,1.6065564E3,2.820407E3,2.9026416E3,8.379666E2,0E0,1.9801631E3,0E0,0E0,0E0,0E0,0E0,0E0,0E0,0E0,0E0,0E0,0E0,0E0,0E0,0E0,0E0,0E0,0E0,0E0,0E0,0E0,0E0,0E0,0E0,0E0,0E0,0E0,0E0,0E0,0E0,0E0,0E0,0E0,0E0,0E0,0E0,0E0,0E0,0E0,0E0,0E0,0E0,0E0,0E0,0E0,0E0,0E0,0E0,0E0,0E0,0E0,0E0,0E0,0E0,0E0],"parents":[2147483647,0,0,1,1,2,2,3,3,4,4,5,5,6,6,7,7,8,8,9,9,10,10,11,11,12,12,13,13,14,14,15,15,17,17,18,18,19,19,20,20,21,21,22,22,23,23,24,24,25,25,26,26,27,27,28,28,29,29,30,30,31,31,32,32,33,33,34,34,35,35,36,36,37,37,38,38,40,40,41,41,42,42,43,43,44,44,45,45,46,46,47,47,48,48,49,49,50,50,51,51,53,53,54,54,55,55,56,56,57,57,58,58,60,60],"right_children":[2,4,6,8,10,12,14,16,18,20,22,24,26,28,30,32,-1,34,36,38,40,42,44,46,48,50,52,54,56,58,60,62,64,66,68,70,72,74,76,-1,78,80,82,84,86,88,90,92,94,96,98,100,-1,102,104,106,108,110,112,-1,114,-1,-1,-1,-1,-1,-1,-1,-1,-1,-1,-1,-1,-1,-1,-1,-1,-1,-1,-1,-1,-1,-1,-1,-1,-1,-1,-1,-1,-1,-1,-1,-1,-1,-1,-1,-1,-1,-1,-1,-1,-1,-1,-1,-1,-1,-1,-1,-1,-1,-1,-1,-1,-1,-1],"split_conditions":[2.1975168E1,2.9421658E1,1E-1,1.3392774E1,2.9976925E1,1.645007E1,7.10031E0,1.332E1,2.5582806E1,6.8999996E0,9.459418E1,2.8954332E1,2.8300163E1,2.557975E1,1.512748E1,2.7E0,1.2203244E1,4E-1,1.9343918E1,2.9540148E1,1.5743918E1,2.1552252E1,1.8229334E1,1.4986553E1,9.9571085E0,1.8486622E1,2.1261345E1,1.35E1,2.8166834E1,1.1901798E1,1.7252748E1,2.4999998E0,8.1797495E0,3E-1,1.4709677E1,2.6463982E1,2.0948084E1,1.4146415E1,2.6434887E1,1.5184342E1,1.1299998E1,2.0756418E1,3.993776E1,2.0465244E2,2.5318008E1,1.4291592E1,1.5937878E1,3.017933E1,6.367422E1,2.557975E1,1.869662E1,4.3995014E1,-4.642167E0,2.9999998E0,7.2100006E1,8E-1,2.4512868E2,2.5198088E1,2.4346415E1,1.1554161E1,5.43E1,2.6357768E0,1.3962887E1,-7.3364244E0,6.827816E-1,2.1815707E-1,6.949163E0,3.0510542E0,-1.4918885E0,-6.024311E0,-2.8180342E0,4.563384E0,-3.6246037E0,1.0033788E1,-9.5009005E-1,3.126625E-1,7.536951E0,-2.7875004E0,8.327484E0,8.6703557E-1,-2.9529705E0,6.791761E0,-1.8375334E0,6.640578E0,8.9361304E-1,1.0238359E0,-8.791008E0,1.4330484E0,-2.0096505E0,7.270246E0,8.1093866E-1,5.059326E0,-2.1146307E0,-3.1298894E-1,-3.7071223E0,-4.4146695E0,-8.165427E-1,8.625497E0,-4.8706195E-1,4.6133475E0,-3.9183435E0,6.0790944E0,2.8117213E0,-2.6427445E0,2.4377575E0,-4.535431E0,-7.4412084E-1,4.849671E0,-2.7930431E0,-9.670891E0,-1.1153789E0,1.7208843E0,-2.8918147E0,-9.954989E-1,1.1522877E0],"split_indices":[0,3,1,2,3,2,2,2,2,1,3,0,0,0,3,1,0,1,0,3,0,0,0,2,2,2,2,1,0,2,3,1,0,1,3,3,0,0,2,0,1,0,3,3,2,2,2,0,3,0,2,3,0,1,1,1,3,0,0,0,1,0,0,0,0,0,0,0,0,0,0,0,0,0,0,0,0,0,0,0,0,0,0,0,0,0,0,0,0,0,0,0,0,0,0,0,0,0,0,0,0,0,0,0,0,0,0,0,0,0,0,0,0,0,0],"split_type":[0,0,0,0,0,0,0,0,0,0,0,0,0,0,0,0,0,0,0,0,0,0,0,0,0,0,0,0,0,0,0,0,0,0,0,0,0,0,0,0,0,0,0,0,0,0,0,0,0,0,0,0,0,0,0,0,0,0,0,0,0,0,0,0,0,0,0,0,0,0,0,0,0,0,0,0,0,0,0,0,0,0,0,0,0,0,0,0,0,0,0,0,0,0,0,0,0,0,0,0,0,0,0,0,0,0,0,0,0,0,0,0,0,0,0],"sum_hessian":[4.094E3,2.206E3,1.888E3,1.187E3,1.019E3,3.8E2,1.508E3,2.66E2,9.21E2,4.4E1,9.75E2,2.54E2,1.26E2,1.17E2,1.391E3,2.62E2,4E0,8.5E2,7.1E1,3.6E1,8E0,6.56E2,3.19E2,1.99E2,5.5E1,1.08E2,1.8E1,3.6E1,8.1E1,3.2E1,1.359E3,1.57E2,1.05E2,3.39E2,5.11E2,6.2E1,9E0,1E1,2.6E1,3E0,5E0,6.32E2,2.4E1,1.48E2,1.71E2,1.82E2,1.7E1,1.8E1,3.7E1,4.1E1,6.7E1,1.6E1,2E0,2.7E1,9E0,5.9E1,2.2E1,1.5E1,1.7E1,3E0,1.356E3,1.54E2,3E0,9E0,9.6E1,3.29E2,1E1,2.7E1,4.84E2,3.4E1,2.8E1,6E0,3E0,8E0,2E0,2.3E1,3E0,1E0,4E0,5.87E2,4.5E1,1.8E1,6E0,7.2E1,7.6E1,1.69E2,2E0,1.67E2,1.5E1,1E1,7E0,1.1E1,7E0,1.8E1,1.9E1,2.8E1,1.3E1,3E0,6.4E1,1.4E1,2E0,9E0,1.8E1,8E0,1E0,1.2E1,4.7E1,1.7E1,5E0,9E0,6E0,4E0,1.3E1,1.317E3,3.9E1],"tree_param":{"num_deleted":"0","num_feature":"4","num_nodes":"115","size_leaf_vector":"1"}},{"base_weights":[4.506777E-2,7.7991134E-1,-2.5533824E0,2.018454E0,-7.83731E-1,-8.115896E0,-2.002815E0,3.3949287E0,-1.2659307E0,2.3460382E-1,-2.6884112E0,-2.9692123E0,-2.366482E1,1.0190265E1,-2.492936E0,-2.8798783E0,4.2037134E0,-8.153132E0,1.4197847E0,-5.910609E-1,3.9659946E0,-3.9068813E0,2.5122063E0,-7.2301273E0,7.054445E0,-6.648547E0,-2.7503353E1,1.5766795E1,-8.510174E0,-1.2687327E1,-1.9338096E0,-2.1629995E1,1.4317927E-1,3.9165583E0,2.0531666E1,-1.3639203E0,-1.8371368E1,3.51219E-1,1.87923E1,-1.0561596E0,7.1346703E0,8.523949E0,-2.964145E0,-1.096351E1,-2.8178089E0,1.9289627E1,5.6287605E-2,3.129377E1,-9.809689E0,-6.070193E0,2.5859596E1,-4.435417E0,3.8844235E0,-2.8839651E1,-1.1188351E0,-3.504159E0,2.345573E1,4.7227516E0,-7.863085E0,-1.8523818E0,-1.7106876E1,1.1053034E1,-2.5452406E0,-1.9817351E0,-7.167825E0,1.7989495E0,-1.8893574E0,3.2036395E0,9.6786124E-1,-3.355742E0,8.153342E0,7.835174E0,-9.8631644E-1,-7.116775E0,-7.5219715E-1,2.1554236E-1,-7.73825E0,1.3546327E1,2.5147774E0,-1.3338839E-1,-2.6463354E0,7.45608E0,7.1235806E-1,1.3260232E0,6.9179E0,-1.7225448E0,4.032828E0,-5.006033E0,-4.3431985E-1,4.8646964E-2,-1.5262924E0,1.4432694E0,8.683292E0,1.7093365E0,-1.675966E0,2.9664117E-1,1.3785556E1,-5.3085294E0,-7.578912E-1,3.0989904E0,-5.7780914E0,-4.3475704E0,1.0108311E1,-9.295732E0,-2.977974E0,7.967575E0,-3.477876E0,4.338175E-1,1.1199128E1,-3.4962394E0,4.8483734E0,2.1235528E0,-6.7321315E0,5.144292E0,-1.5866348E0,-2.5332518E0,-5.657628E-1],"categories":[],"categories_nodes":[],"categories_segments":[],"categories_sizes":[],"default_left":[0,0,0,0,0,0,0,0,0,0,0,0,0,0,0,0,0,0,0,0,0,0,0,0,0,0,0,0,0,0,0,0,0,0,0,0,0,0,0,0,0,0,0,0,0,0,0,0,0,0,0,0,0,0,0,0,0,0,0,0,0,0,0,0,0,0,0,0,0,0,0,0,0,0,0,0,0,0,0,0,0,0,0,0,0,0,0,0,0,0,0,0,0,0,0,0,0,0,0,0,0,0,0,0,0,0,0,0,0,0,0,0,0,0,0,0,0],"id":7,"left_children":[1,3,5,7,9,11,13,15,17,19,21,23,25,27,29,31,33,35,37,39,41,43,45,47,49,51,53,55,57,59,61,63,65,67,69,71,73,75,77,79,81,83,85,87,89,91,93,95,97,99,101,-1,-1,103,-1,105,107,-1,-1,109,111,113,115,-1,-1,-1,-1,-1,-1,-1,-1,-1,-1,-1,-1,-1,-1,-1,-1,-1,-1,-1,-1,-1,-1,-1,-1,-1,-1,-1,-1,-1,-1,-1,-1,-1,-1,-1,-1,-1,-1,-1,-1,-1,-1,-1,-1,-1,-1,-1,-1,-1,-1,-1,-1,-1,-1],"loss_changes":[7.821207E3,6.185266E3,2.7492178E3,8.0604927E3,2.7393489E3,6.411791E3,4.9437207E3,6.3862656E3,9.759529E3,2.8398325E3,3.1275198E3,2.6990217E3,1.1234922E3,3.4712517E3,4.4898267E3,8.1654033E3,5.1380586E3,1.0242263E4,7.047595E3,2.720422E3,5.300338E3,3.0354932E3,3.8720889E3,4.6794707E3,4.846378E3,9.8864166E2,4.0074707E2,3.78652E3,3.8468152E3,1.9316206E3,5.9994326E3,5.220918E2,4.7504453E3,5.077383E3,4.3091816E3,4.844013E3,4.9491406E3,3.4656633E3,5.6587734E3,3.3817712E3,3.5678044E3,5.922999E3,3.1305752E3,2.862292E3,2.347941E3,1.5382017E3,2.6740605E3,1.2872004E3,2.3674604E3,2.7947974E3,3.0174536E3,0E0,0E0,3.0126367E2,0E0,2.253254E3,5.4428125E3,0E0,0E0,2.4836904E3,3.8996777E3,3.4769854E3,2.7806597E3,0E0,0E0,0E0,0E0,0E0,0E0,0E0,0E0,0E0,0E0,0E0,0E0,0E0,0E0,0E0,0E0,0E0,0E0,0E0,0E0,0E0,0E0,0E0,0E0,0E0,0E0,0E0,0E0,0E0,0E0,0E0,0E0,0E0,0E0,0E0,0E0,0E0,0E0,0E0,0E0,0E0,0E0,0E0,0E0,0E0,0E0,0E0,0E0,0E0,0E0,0E0,0E0,0E0,0E0],"parents":[2147483647,0,0,1,1,2,2,3,3,4,4,5,5,6,6,7,7,8,8,9,9,10,10,11,11,12,12,13,13,14,14,15,15,16,16,17,17,18,18,19,19,20,20,21,21,22,22,23,23,24,24,25,25,26,26,27,27,28,28,29,29,30,30,31,31,32,32,33,33,34,34,35,35,36,36,37,37,38,38,39,39,40,40,41,41,42,42,43,43,44,44,45,45,46,46,47,47,48,48,49,49,50,50,53,53,55,55,56,56,59,59,60,60,61,61,62,62],"right_children":[2,4,6,8,10,12,14,16,18,20,22,24,26,28,30,32,34,36,38,40,42,44,46,48,50,52,54,56,58,60,62,64,66,68,70,72,74,76,78,80,82,84,86,88,90,92,94,96,98,100,102,-1,-1,104,-1,106,108,-1,-1,110,112,114,116,-1,-1,-1,-1,-1,-1,-1,-1,-1,-1,-1,-1,-1,-1,-1,-1,-1,-1,-1,-1,-1,-1,-1,-1,-1,-1,-1,-1,-1,-1,-1,-1,-1,-1,-1,-1,-1,-1,-1,-1,-1,-1,-1,-1,-1,-1,-1,-1,-1,-1,-1,-1,-1,-1],"split_conditions":[1.03E1,2.1639753E1,1.0837666E1,1.9523155E1,1.5124284E1,9.668916E0,1.2587666E1,8.1797495E0,2.4016329E1,1.3684735E1,2.109305E1,8.362667E0,1.11E1,2.9976925E1,1.4718917E1,1.7252748E1,1.9386593E1,1.07022505E1,1.729788E2,8.3E0,2.7756422E1,2.7996443E1,2.8362555E1,1.06E1,2.3293463E1,1.4512064E1,3.0814703E1,1.910515E1,1.0086427E1,1.3039754E1,1.59418335E1,1.0304779E1,2.6565014E1,1.610779E1,8.616834E0,1.7571362E1,2.4419706E1,9.800001E0,1.7925169E1,6.4999995E0,2.4440165E1,1.8788306E2,1.4934577E1,2.4933914E1,2.6887665E1,2.542772E1,2.27057E1,5.16725E0,1.81E1,1.5599998E1,1.0499999E1,-4.435417E0,3.8844235E0,3.4600002E1,-1.1188351E0,1.0965168E1,1.6300001E1,4.7227516E0,-7.863085E0,1.81E1,2.184523E1,1.7294992E1,1.8229334E1,-1.9817351E0,-7.167825E0,1.7989495E0,-1.8893574E0,3.2036395E0,9.6786124E-1,-3.355742E0,8.153342E0,7.835174E0,-9.8631644E-1,-7.116775E0,-7.5219715E-1,2.1554236E-1,-7.73825E0,1.3546327E1,2.5147774E0,-1.3338839E-1,-2.6463354E0,7.45608E0,7.1235806E-1,1.3260232E0,6.9179E0,-1.7225448E0,4.032828E0,-5.006033E0,-4.3431985E-1,4.8646964E-2,-1.5262924E0,1.4432694E0,8.683292E0,1.7093365E0,-1.675966E0,2.9664117E-1,1.3785556E1,-5.3085294E0,-7.578912E-1,3.0989904E0,-5.7780914E0,-4.3475704E0,1.0108311E1,-9.295732E0,-2.977974E0,7.967575E0,-3.477876E0,4.338175E-1,1.1199128E1,-3.4962394E0,4.8483734E0,2.1235528E0,-6.7321315E0,5.144292E0,-1.5866348E0,-2.5332518E0,-5.657628E-1],"split_indices":[1,0,0,2,2,0,0,0,3,2,2,0,1,3,0,3,2,0,3,1,0,3,3,1,3,2,3,3,2,2,0,3,3,3,0,3,2,1,0,1,0,3,2,0,0,3,2,0,1,1,1,0,0,1,0,0,1,0,0,1,3,2,0,0,0,0,0,0,0,0,0,0,0,0,0,0,0,0,0,0,0,0,0,0,0,0,0,0,0,0,0,0,0,0,0,0,0,0,0,0,0,0,0,0,0,0,0,0,0,0,0,0,0,0,0,0,0],"split_type":[0,0,0,0,0,0,0,0,0,0,0,0,0,0,0,0,0,0,0,0,0,0,0,0,0,0,0,0,0,0,0,0,0,0,0,0,0,0,0,0,0,0,0,0,0,0,0,0,0,0,0,0,0,0,0,0,0,0,0,0,0,0,0,0,0,0,0,0,0,0,0,0,0,0,0,0,0,0,0,0,0,0,0,0,0,0,0,0,0,0,0,0,0,0,0,0,0,0,0,0,0,0,0,0,0,0,0,0,0,0,0,0,0,0,0,0,0],"sum_hessian":[4.094E3,3.192E3,9.02E2,1.781E3,1.411E3,8E1,8.22E2,1.255E3,5.26E2,9.2E2,4.91E2,6.1E1,1.9E1,3.1E1,7.91E2,1.43E2,1.112E3,1.47E2,3.79E2,7.54E2,1.66E2,3.98E2,9.3E1,4.3E1,1.8E1,4E0,1.5E1,2.4E1,7E0,4E1,7.51E2,1.9E1,1.24E2,1.094E3,1.8E1,8.9E1,5.8E1,3.58E2,2.1E1,7.12E2,4.2E1,1E2,6.6E1,5.2E1,3.46E2,1.1E1,8.2E1,2E0,4.1E1,1.1E1,7E0,3E0,1E0,1.4E1,1E0,7E0,1.7E1,3E0,4E0,1.2E1,2.8E1,3.3E1,7.18E2,3E0,1.6E1,6.5E1,5.9E1,1E2,9.94E2,3E0,1.5E1,5E0,8.4E1,4.3E1,1.5E1,3.54E2,4E0,5E0,1.6E1,6.61E2,5.1E1,8E0,3.4E1,7.9E1,2.1E1,5.7E1,9E0,3.2E1,2E1,1.5E2,1.96E2,5E0,6E0,4.1E1,4.1E1,1E0,1E0,1.9E1,2.2E1,5E0,6E0,1E0,6E0,1.2E1,2E0,1E0,6E0,7E0,1E1,8E0,4E0,5E0,2.3E1,2.4E1,9E0,7.1E1,6.47E2],"tree_param":{"num_deleted":"0","num_feature":"4","num_nodes":"117","size_leaf_vector":"1"}},{"base_weights":[3.9792698E-2,1.134698E0,-9.7379845E-1,1.3272763E1,9.780984E-1,-1.58880825E1,-8.1037694E-1,-3.3811688E0,1.8709856E1,1.7674147E1,8.739977E-1,-2.3859436E1,-7.92093E0,-6.6237106E0,-5.0798076E-1,2.0666475E0,-8.866931E0,2.6652073E1,1.185589E1,2.5016504E1,-3.2646961E0,-7.839137E0,1.057455E0,-1.3347557E1,-3.0394743E1,6.667747E0,-1.2285312E1,-1.0412791E1,-1.9861833E0,8.5780394E-1,-1.8637471E0,-4.220443E0,1.7906868E0,6.477521E0,4.5207245E1,1.3538728E1,-9.9829906E-1,1.8010839E0,3.1392183E1,4.6347327E0,-4.0444474E0,2.0534258E1,-1.2479172E1,3.4431398E0,1.3589124E-1,1.3776321E0,-6.316368E0,-9.851495E0,-2.7265332E0,-1.6953442E1,1.2893076E0,1.1694646E1,-1.1429328E1,2.4469828E1,-3.6683974E0,-1.2383497E0,2.7411175E0,-2.1057723E0,8.116774E0,2.683826E0,5.5493474E-1,1.8192728E1,5.9544134E0,-7.171555E-2,4.482124E0,-6.5614015E-1,1.466628E0,1.1410324E1,2.957322E0,1.868755E0,2.168747E-1,-1.0675759E0,1.00411E1,-4.14998E0,5.034004E0,7.82344E-1,3.5809276E0,2.4480873E-1,-9.19247E-1,-9.10492E-1,1.5304265E0,-2.0224886E0,-8.40984E0,8.867844E-1,-5.56592E-1,9.899826E0,-4.6372356E0,-4.2241354E0,-2.2683069E-1,9.466457E0,1.5449662E0,3.1973825E0,-1.7026386E0,-1.7935288E-1,-5.8486385E0,-4.887929E0,9.88022E-1,-7.297106E-1,1.5248232E0,-2.277862E0,4.9338455E0],"categories":[],"categories_nodes":[],"categories_segments":[],"categories_sizes":[],"default_left":[0,0,0,0,0,0,0,0,0,0,0,0,0,0,0,0,0,0,0,0,0,0,0,0,0,0,0,0,0,0,0,0,0,0,0,0,0,0,0,0,0,0,0,0,0,0,0,0,0,0,0,0,0,0,0,0,0,0,0,0,0,0,0,0,0,0,0,0,0,0,0,0,0,0,0,0,0,0,0,0,0,0,0,0,0,0,0,0,0,0,0,0,0,0,0,0,0,0,0,0,0],"id":8,"left_children":[1,3,5,7,9,11,13,15,17,19,21,23,25,27,29,-1,31,33,35,37,39,41,43,45,47,-1,49,51,53,55,57,-1,-1,59,61,63,-1,65,67,69,-1,71,73,75,77,79,-1,-1,-1,81,83,85,87,89,91,93,95,97,99,-1,-1,-1,-1,-1,-1,-1,-1,-1,-1,-1,-1,-1,-1,-1,-1,-1,-1,-1,-1,-1,-1,-1,-1,-1,-1,-1,-1,-1,-1,-1,-1,-1,-1,-1,-1,-1,-1,-1,-1,-1,-1],"loss_changes":[4.5456797E3,3.729726E3,5.171294E3,2.3269854E3,3.365098E3,1.2717183E3,3.6970771E3,4.5545392E2,7.1829395E2,1.9265569E3,3.0997632E3,3.4998633E2,1.9834861E3,1.8068027E3,3.7086724E3,0E0,4.69795E2,2.7019072E3,3.5166992E2,1.2755874E3,3.8531046E2,5.5223926E3,4.1658047E3,7.0992786E2,1.3931641E1,0E0,7.8227515E2,1.4146245E3,2.2259895E3,3.9432134E3,2.4447078E3,0E0,0E0,4.057106E1,3.62062E2,2.160044E2,0E0,4.763534E1,6.2632324E2,1.420842E1,0E0,1.9891074E3,1.618812E3,3.714858E3,2.9799165E3,6.477751E1,0E0,0E0,0E0,8.292761E2,2.6447954E1,2.2454949E3,1.5456353E3,2.4814307E2,1.3831672E3,5.519514E3,5.5831777E3,2.3178447E3,3.265312E3,0E0,0E0,0E0,0E0,0E0,0E0,0E0,0E0,0E0,0E0,0E0,0E0,0E0,0E0,0E0,0E0,0E0,0E0,0E0,0E0,0E0,0E0,0E0,0E0,0E0,0E0,0E0,0E0,0E0,0E0,0E0,0E0,0E0,0E0,0E0,0E0,0E0,0E0,0E0,0E0,0E0,0E0],"parents":[2147483647,0,0,1,1,2,2,3,3,4,4,5,5,6,6,7,7,8,8,9,9,10,10,11,11,12,12,13,13,14,14,16,16,17,17,18,18,19,19,20,20,21,21,22,22,23,23,24,24,26,26,27,27,28,28,29,29,30,30,33,33,34,34,35,35,37,37,38,38,39,39,41,41,42,42,43,43,44,44,45,45,49,49,50,50,51,51,52,52,53,53,54,54,55,55,56,56,57,57,58,58],"right_children":[2,4,6,8,10,12,14,16,18,20,22,24,26,28,30,-1,32,34,36,38,40,42,44,46,48,-1,50,52,54,56,58,-1,-1,60,62,64,-1,66,68,70,-1,72,74,76,78,80,-1,-1,-1,82,84,86,88,90,92,94,96,98,100,-1,-1,-1,-1,-1,-1,-1,-1,-1,-1,-1,-1,-1,-1,-1,-1,-1,-1,-1,-1,-1,-1,-1,-1,-1,-1,-1,-1,-1,-1,-1,-1,-1,-1,-1,-1,-1,-1,-1,-1,-1,-1],"split_conditions":[1.5000001E0,5.0528407E0,1.6E0,4.3349743E0,2.579333E0,2.4093918E1,6.368917E0,1.35335E1,1.5743918E1,2.3990698E1,5.510584E0,1.3905509E1,2.4440165E1,5.9E0,2.2681831E1,2.0666475E0,1.5631836E1,1.342725E1,2.9198082E1,1.8675955E1,1.9876667E0,1.5844089E1,1.37585E1,1.07022505E1,2.106267E1,6.667747E0,2.0187628E2,1.8000002E0,6E0,2.7669004E1,2.9487663E1,-4.220443E0,1.7906868E0,1.0610583E1,1E-1,1.84335E1,-9.9829906E-1,1.9876667E0,3.816389E1,2E-1,-4.0444474E0,1.3849476E1,3.676914E1,1.323975E1,1.9523155E1,9.385583E0,-6.316368E0,-9.851495E0,-2.7265332E0,1.7677545E2,2.8531832E1,4.3897505E0,2.6734484E1,5.16725E0,1.4709677E1,2.7274492E1,8.1797495E0,2.2065973E1,2.6E0,2.683826E0,5.5493474E-1,1.8192728E1,5.9544134E0,-7.171555E-2,4.482124E0,-6.5614015E-1,1.466628E0,1.1410324E1,2.957322E0,1.868755E0,2.168747E-1,-1.0675759E0,1.00411E1,-4.14998E0,5.034004E0,7.82344E-1,3.5809276E0,2.4480873E-1,-9.19247E-1,-9.10492E-1,1.5304265E0,-2.0224886E0,-8.40984E0,8.867844E-1,-5.56592E-1,9.899826E0,-4.6372356E0,-4.2241354E0,-2.2683069E-1,9.466457E0,1.5449662E0,3.1973825E0,-1.7026386E0,-1.7935288E-1,-5.8486385E0,-4.887929E0,9.88022E-1,-7.297106E-1,1.5248232E0,-2.277862E0,4.9338455E0],"split_indices":[1,2,1,2,0,0,0,0,0,2,0,2,0,1,0,0,0,0,0,3,0,2,0,0,0,0,3,1,1,3,0,0,0,0,1,0,0,0,3,1,0,2,3,0,2,0,0,0,0,3,0,0,3,0,3,3,0,2,1,0,0,0,0,0,0,0,0,0,0,0,0,0,0,0,0,0,0,0,0,0,0,0,0,0,0,0,0,0,0,0,0,0,0,0,0,0,0,0,0,0,0],"split_type":[0,0,0,0,0,0,0,0,0,0,0,0,0,0,0,0,0,0,0,0,0,0,0,0,0,0,0,0,0,0,0,0,0,0,0,0,0,0,0,0,0,0,0,0,0,0,0,0,0,0,0,0,0,0,0,0,0,0,0,0,0,0,0,0,0,0,0,0,0,0,0,0,0,0,0,0,0,0,0,0,0,0,0,0,0,0,0,0,0,0,0,0,0,0,0,0,0,0,0,0,0],"sum_hessian":[4.094E3,1.968E3,2.126E3,2.4E1,1.944E3,2.2E1,2.104E3,6E0,1.8E1,1.1E1,1.933E3,1E1,1.2E1,1.03E2,2.001E3,2E0,4E0,7E0,1.1E1,8E0,3E0,3.9E1,1.894E3,5E0,5E0,1E0,1.1E1,5.6E1,4.7E1,9.97E2,1.004E3,3E0,1E0,4E0,3E0,1E1,1E0,2E0,6E0,2E0,1E0,5E0,3.4E1,5.27E2,1.367E3,2E0,3E0,4E0,1E0,8E0,3E0,2E0,5.4E1,2E0,4.5E1,4.72E2,5.25E2,9.81E2,2.3E1,2E0,2E0,1E0,2E0,1E0,9E0,1E0,1E0,4E0,2E0,1E0,1E0,2E0,3E0,3.3E1,1E0,4.81E2,4.6E1,1.128E3,2.39E2,1E0,1E0,5E0,3E0,2E0,1E0,1E0,1E0,4.3E1,1.1E1,1E0,1E0,5E0,4E1,4.57E2,1.5E1,1.4E1,5.11E2,9.39E2,4.2E1,8E0,1.5E1],"tree_param":{"num_deleted":"0","num_feature":"4","num_nodes":"101","size_leaf_vector":"1"}},{"base_weights":[3.8192324E-2,3.9989674E0,-1.7263788E-1,5.1892223E0,-2.2099547E0,5.6791764E-1,-1.0771928E0,7.9359765E0,1.1877656E0,4.9563465E0,-9.667806E0,2.976992E-2,4.439993E0,-1.1892912E0,7.786791E0,2.7100623E0,1.0148383E1,-8.1036943E-1,1.9857643E1,2.4547069E-1,6.414913E0,-7.3813353E0,-4.7096353E0,8.214316E-1,-1.4336497E0,7.64409E0,-5.9674187E0,-8.5158587E-1,-6.0603247E0,1.8693066E0,1.0423663E1,1.9495604E1,-1.1204306E0,6.431578E0,1.6476902E1,-4.3115163E0,6.3879023E0,-2.4988303E0,9.839509E0,5.353532E0,-2.1971285E1,2.3257685E0,-7.4327145E0,6.215377E-1,1.9332996E1,-1.7856697E0,2.4227535E1,4.0581593E1,6.9365063E0,-1.729047E1,-2.304644E0,-1.3545582E1,-7.7221227E-1,-9.236972E0,-5.3307877E0,-2.5955288E0,4.9684734E0,1.2941791E1,2.633648E-1,1.313221E0,6.4931293E0,6.4027286E-1,-3.8602483E0,2.64413E0,-2.5320117E0,8.363012E0,1.4143337E0,1.584525E0,-4.1151977E0,3.4659092E0,-2.7933831E0,-4.2058573E0,3.0451224E0,-9.0202265E0,-8.668522E-1,-3.1862621E0,1.7016159E0,3.2528287E-1,-1.9452808E0,4.676674E-1,1.1942892E1,-1.4563557E0,3.615394E-1,-6.170975E-1,8.331068E0,2.076468E1,-6.7980633E0,2.2129934E0,-7.1953883E0,-7.654801E0,1.2791387E0,9.165822E-1,-4.290045E0,-5.9407997E0,2.2965517E0,-2.5865307E-1,2.6554496E0,7.506121E0,-1.8373551E0,1.8466592E0,-2.1981175E0,1.8682398E0,6.3289056E0,-9.548645E-1,1.5903157E0],"categories":[],"categories_nodes":[],"categories_segments":[],"categories_sizes":[],"default_left":[0,0,0,0,0,0,0,0,0,0,0,0,0,0,0,0,0,0,0,0,0,0,0,0,0,0,0,0,0,0,0,0,0,0,0,0,0,0,0,0,0,0,0,0,0,0,0,0,0,0,0,0,0,0,0,0,0,0,0,0,0,0,0,0,0,0,0,0,0,0,0,0,0,0,0,0,0,0,0,0,0,0,0,0,0,0,0,0,0,0,0,0,0,0,0,0,0,0,0,0,0,0,0,0,0],"id":9,"left_children":[1,3,5,7,9,11,13,15,17,19,21,23,25,27,29,31,33,35,37,39,-1,-1,41,43,45,47,49,51,53,55,57,59,61,63,65,67,69,-1,-1,71,73,-1,75,77,79,81,83,85,87,89,91,93,95,-1,97,99,-1,101,103,-1,-1,-1,-1,-1,-1,-1,-1,-1,-1,-1,-1,-1,-1,-1,-1,-1,-1,-1,-1,-1,-1,-1,-1,-1,-1,-1,-1,-1,-1,-1,-1,-1,-1,-1,-1,-1,-1,-1,-1,-1,-1,-1,-1,-1,-1],"loss_changes":[3.420224E3,1.5412402E3,2.605748E3,1.9030107E3,1.8650538E3,4.4570054E3,1.7491235E3,1.1633672E3,2.702047E3,1.3876653E3,1.1431154E3,2.1780613E3,8.749016E3,2.8406443E3,3.237953E2,2.079344E3,1.5876025E3,1.6908871E3,2.8265195E3,1.8198925E3,0E0,0E0,5.327202E2,4.5024087E3,6.005207E3,4.379717E3,2.5315261E3,1.6207936E3,1.8564731E3,5.677746E2,3.803656E2,1.0011426E2,1.0597493E3,1.7394574E3,3.3549082E3,4.132911E3,1.8915154E3,0E0,0E0,1.3503958E3,3.7658582E2,0E0,5.616032E2,3.979092E3,4.6693438E3,5.9901133E3,8.951846E2,8.811902E3,2.8580098E3,2.7682246E3,3.1298474E3,1.4781418E3,1.4015581E3,0E0,2.8032078E3,3.349432E2,0E0,5.256515E2,8.631707E1,0E0,0E0,0E0,0E0,0E0,0E0,0E0,0E0,0E0,0E0,0E0,0E0,0E0,0E0,0E0,0E0,0E0,0E0,0E0,0E0,0E0,0E0,0E0,0E0,0E0,0E0,0E0,0E0,0E0,0E0,0E0,0E0,0E0,0E0,0E0,0E0,0E0,0E0,0E0,0E0,0E0,0E0,0E0,0E0,0E0,0E0],"parents":[2147483647,0,0,1,1,2,2,3,3,4,4,5,5,6,6,7,7,8,8,9,9,10,10,11,11,12,12,13,13,14,14,15,15,16,16,17,17,18,18,19,19,22,22,23,23,24,24,25,25,26,26,27,27,28,28,29,29,30,30,31,31,32,32,33,33,34,34,35,35,36,36,39,39,40,40,42,42,43,43,44,44,45,45,46,46,47,47,48,48,49,49,50,50,51,51,52,52,54,54,55,55,57,57,58,58],"right_children":[2,4,6,8,10,12,14,16,18,20,22,24,26,28,30,32,34,36,38,40,-1,-1,42,44,46,48,50,52,54,56,58,60,62,64,66,68,70,-1,-1,72,74,-1,76,78,80,82,84,86,88,90,92,94,96,-1,98,100,-1,102,104,-1,-1,-1,-1,-1,-1,-1,-1,-1,-1,-1,-1,-1,-1,-1,-1,-1,-1,-1,-1,-1,-1,-1,-1,-1,-1,-1,-1,-1,-1,-1,-1,-1,-1,-1,-1,-1,-1,-1,-1,-1,-1,-1,-1,-1,-1],"split_conditions":[6.696387E0,1.0499999E1,2.2150583E1,2.5013083E1,1.0061955E2,1.4517543E2,3.3974924E2,1.3133915E1,7.799999E0,2.55E1,2.0146002E1,1.59418335E1,2.5344284E2,2.1676918E2,2.5650581E1,9.058499E0,2.1999998E0,2.8166834E1,5.495161E0,2.09E1,6.414913E0,-7.3813353E0,2.106267E1,1.58793335E1,2.9827904E1,7.289445E0,1.2854333E1,5.3814697E0,2.2579332E1,3.63E1,1.5000001E0,5.81475E0,4.2000003E0,1.7000002E0,2.001892E1,5.95906E0,2.0666454E2,-2.4988303E0,9.839509E0,1.2854333E1,1.9725168E1,2.3257685E0,2.7031418E1,2.5318008E1,2.5288301E1,1.902725E1,2.0562561E1,1.4146415E1,2.5318008E1,9.499999E0,1.8612667E1,2.9925169E1,7.2100006E1,-9.236972E0,2.3312668E1,3.47074E2,4.9684734E0,2E-1,2.7315165E1,1.313221E0,6.4931293E0,6.4027286E-1,-3.8602483E0,2.64413E0,-2.5320117E0,8.363012E0,1.4143337E0,1.584525E0,-4.1151977E0,3.4659092E0,-2.7933831E0,-4.2058573E0,3.0451224E0,-9.0202265E0,-8.668522E-1,-3.1862621E0,1.7016159E0,3.2528287E-1,-1.9452808E0,4.676674E-1,1.1942892E1,-1.4563557E0,3.615394E-1,-6.170975E-1,8.331068E0,2.076468E1,-6.7980633E0,2.2129934E0,-7.1953883E0,-7.654801E0,1.2791387E0,9.165822E-1,-4.290045E0,-5.9407997E0,2.2965517E0,-2.5865307E-1,2.6554496E0,7.506121E0,-1.8373551E0,1.8466592E0,-2.1981175E0,1.8682398E0,6.3289056E0,-9.548645E-1,1.5903157E0],"split_indices":[2,1,0,0,3,3,3,0,1,1,0,0,3,3,0,0,1,0,2,1,0,0,0,0,2,2,0,3,0,1,1,0,1,1,0,2,3,0,0,0,0,0,0,2,3,0,3,0,2,1,0,0,1,0,0,3,0,1,0,0,0,0,0,0,0,0,0,0,0,0,0,0,0,0,0,0,0,0,0,0,0,0,0,0,0,0,0,0,0,0,0,0,0,0,0,0,0,0,0,0,0,0,0,0,0],"split_type":[0,0,0,0,0,0,0,0,0,0,0,0,0,0,0,0,0,0,0,0,0,0,0,0,0,0,0,0,0,0,0,0,0,0,0,0,0,0,0,0,0,0,0,0,0,0,0,0,0,0,0,0,0,0,0,0,0,0,0,0,0,0,0,0,0,0,0,0,0,0,0,0,0,0,0,0,0,0,0,0,0,0,0,0,0,0,0,0,0,0,0,0,0,0,0,0,0,0,0,0,0,0,0,0,0],"sum_hessian":[4.094E3,2.06E2,3.888E3,1.73E2,3.3E1,2.138E3,1.75E3,1.02E2,7.1E1,1.7E1,1.6E1,1.878E3,2.6E2,1.729E3,2.1E1,3.1E1,7.1E1,6.5E1,6E0,1.4E1,3E0,3E0,1.3E1,1.219E3,6.59E2,1.99E2,6.1E1,1.618E3,1.11E2,7E0,1.4E1,5E0,2.6E1,4.6E1,2.5E1,4.4E1,2.1E1,2E0,4E0,1.2E1,2E0,2E0,1.1E1,1.207E3,1.2E1,6.51E2,8E0,3E0,1.96E2,1.4E1,4.7E1,9E0,1.609E3,2E0,1.09E2,6E0,1E0,1.1E1,3E0,1E0,4E0,2.1E1,5E0,4E1,6E0,1.2E1,1.3E1,2.2E1,2.2E1,1.6E1,5E0,2E0,1E1,1E0,1E0,9E0,2E0,1.134E3,7.3E1,7E0,5E0,3.21E2,3.3E2,1E0,7E0,2E0,1E0,1.94E2,2E0,1E1,4E0,3.3E1,1.4E1,7E0,2E0,1.595E3,1.4E1,2E0,1.07E2,2E0,4E0,7E0,4E0,2E0,1E0],"tree_param":{"num_deleted":"0","num_feature":"4","num_nodes":"105","size_leaf_vector":"1"}},{"base_weights":[3.505263E-2,3.6696485E-1,-1.9491296E0,3.1975973E-1,1.5349117E1,-1.0482198E1,-1.5349728E0,6.2462026E-1,-1.5989871E0,-2.2843203E1,3.2526638E1,-1.0631864E0,-2.0543964E1,-2.105883E0,3.550019E0,5.028209E-1,1.46309395E1,3.3053133E0,-2.8982906E0,-8.957304E0,-2.6996613E-1,1.3667028E1,-4.3758187E0,-6.1290293E0,2.1243196E1,-2.7043179E1,8.400612E-1,-1.5960085E0,-1.3227396E1,-2.903294E0,1.2544295E1,7.8683686E-1,-2.0324166E0,2.2249853E1,2.218798E0,1.4436463E0,1.6992373E1,-6.1091022E0,-2.4203265E-1,-3.3208869E0,1.3517681E0,-1.048987E1,6.3053284E0,-1.4125438E0,1.0971982E1,-9.225297E0,-4.138116E0,6.0343833E0,-2.2114358E0,9.444645E-1,-4.5736227E0,-1.7864044E1,1.2103531E1,1.4618413E1,-1.0813106E1,2.5620275E1,5.652993E0,-1.0536113E0,2.9292262E-1,5.952136E-1,-1.1914858E0,2.4235222E0,8.983464E0,4.6402125E0,-1.4048522E0,1.6081561E0,-2.094042E0,8.616814E0,1.3530948E0,-5.459459E-1,-3.9425776E0,1.1500722E0,-9.8901623E-1,-1.2962296E0,-5.599001E0,-1.8132603E0,3.7309718E0,-1.7309189E-1,2.8885643E0,-2.7231848E-1,3.4675448E0,-4.445638E0,-1.0305511E0,-7.699907E0,-2.4660859E-1,4.9626117E0,-1.8179856E-1,7.375092E0,6.650354E-1,-6.0466137E0,-8.1011516E-1,9.222227E0,-1.5334615E0,3.1593254E0,-6.1865373E0],"categories":[],"categories_nodes":[],"categories_segments":[],"categories_sizes":[],"default_left":[0,0,0,0,0,0,0,0,0,0,0,0,0,0,0,0,0,0,0,0,0,0,0,0,0,0,0,0,0,0,0,0,0,0,0,0,0,0,0,0,0,0,0,0,0,0,0,0,0,0,0,0,0,0,0,0,0,0,0,0,0,0,0,0,0,0,0,0,0,0,0,0,0,0,0,0,0,0,0,0,0,0,0,0,0,0,0,0,0,0,0,0,0,0,0],"id":10,"left_children":[1,3,5,7,9,11,13,15,17,19,21,23,25,27,29,31,33,35,37,-1,-1,-1,39,41,43,45,47,49,51,53,55,57,59,61,63,65,67,69,71,-1,-1,73,75,-1,-1,-1,-1,77,-1,79,81,83,85,87,89,91,93,-1,-1,-1,-1,-1,-1,-1,-1,-1,-1,-1,-1,-1,-1,-1,-1,-1,-1,-1,-1,-1,-1,-1,-1,-1,-1,-1,-1,-1,-1,-1,-1,-1,-1,-1,-1,-1,-1],"loss_changes":[2.6975771E3,2.476776E3,2.058385E3,2.0477393E3,7.959556E3,2.536999E3,1.6361002E3,5.1446426E3,3.0682236E3,5.8881494E2,4.0460947E3,1.8252098E3,1.8294492E3,2.842528E3,3.344864E3,2.1581426E3,2.409375E3,2.5490244E3,3.2394446E3,0E0,0E0,0E0,2.2823582E2,7.710573E2,1.3657279E3,6.709473E1,2.1509515E2,3.665561E3,2.800131E3,4.870246E3,2.0178215E3,2.1988918E3,2.360077E3,1.5028877E3,1.0782369E3,3.0069585E3,1.6274766E3,5.164595E3,2.614627E3,0E0,0E0,4.2358984E2,3.7804105E2,0E0,0E0,0E0,0E0,7.684232E1,0E0,5.161204E3,2.550086E3,2.5052778E3,2.3566968E2,1.3049387E3,1.764563E3,1.4160254E3,2.396073E3,0E0,0E0,0E0,0E0,0E0,0E0,0E0,0E0,0E0,0E0,0E0,0E0,0E0,0E0,0E0,0E0,0E0,0E0,0E0,0E0,0E0,0E0,0E0,0E0,0E0,0E0,0E0,0E0,0E0,0E0,0E0,0E0,0E0,0E0,0E0,0E0,0E0,0E0],"parents":[2147483647,0,0,1,1,2,2,3,3,4,4,5,5,6,6,7,7,8,8,9,9,10,10,11,11,12,12,13,13,14,14,15,15,16,16,17,17,18,18,22,22,23,23,24,24,25,25,26,26,27,27,28,28,29,29,30,30,31,31,32,32,33,33,34,34,35,35,36,36,37,37,38,38,41,41,42,42,47,47,49,49,50,50,51,51,52,52,53,53,54,54,55,55,56,56],"right_children":[2,4,6,8,10,12,14,16,18,20,22,24,26,28,30,32,34,36,38,-1,-1,-1,40,42,44,46,48,50,52,54,56,58,60,62,64,66,68,70,72,-1,-1,74,76,-1,-1,-1,-1,78,-1,80,82,84,86,88,90,92,94,-1,-1,-1,-1,-1,-1,-1,-1,-1,-1,-1,-1,-1,-1,-1,-1,-1,-1,-1,-1,-1,-1,-1,-1,-1,-1,-1,-1,-1,-1,-1,-1,-1,-1,-1,-1,-1,-1],"split_conditions":[1.6300001E1,1.6199999E1,1.610779E1,1.9228157E2,1.3077249E1,1.2904882E1,5.43E1,1.9089545E2,8.427383E0,1.2373084E1,2.5093918E1,1.2783802E1,2.0848085E1,4.9399998E1,1.57908325E1,2.2782625E1,2.762725E1,7.799999E0,1.2783802E1,-8.957304E0,-2.6996613E-1,1.3667028E1,2.7254333E1,2.2400003E1,5.16725E0,1.687974E1,2.300225E1,1.5990646E1,2.0073025E1,1.1753876E1,2.0756418E1,6.368917E0,9.937665E0,2.311892E1,8.000001E-1,1.5000001E0,7.2E0,2.3999996E0,1.5042659E1,-3.3208869E0,1.3517681E0,1.0304779E1,9.007196E0,-1.4125438E0,1.0971982E1,-9.225297E0,-4.138116E0,2.146267E1,-2.2114358E0,1.484318E1,1.81E1,2.587725E1,2.1794127E1,2.300225E1,2.4164751E1,4.5189762E1,2.3675304E1,-1.0536113E0,2.9292262E-1,5.952136E-1,-1.1914858E0,2.4235222E0,8.983464E0,4.6402125E0,-1.4048522E0,1.6081561E0,-2.094042E0,8.616814E0,1.3530948E0,-5.459459E-1,-3.9425776E0,1.1500722E0,-9.8901623E-1,-1.2962296E0,-5.599001E0,-1.8132603E0,3.7309718E0,-1.7309189E-1,2.8885643E0,-2.7231848E-1,3.4675448E0,-4.445638E0,-1.0305511E0,-7.699907E0,-2.4660859E-1,4.9626117E0,-1.8179856E-1,7.375092E0,6.650354E-1,-6.0466137E0,-8.1011516E-1,9.222227E0,-1.5334615E0,3.1593254E0,-6.1865373E0],"split_indices":[1,1,3,3,0,2,1,3,2,0,0,2,0,1,2,2,0,1,2,0,0,0,0,1,0,2,0,2,2,2,0,0,0,0,1,1,2,1,2,0,0,3,2,0,0,0,0,0,0,2,1,0,2,0,0,3,2,0,0,0,0,0,0,0,0,0,0,0,0,0,0,0,0,0,0,0,0,0,0,0,0,0,0,0,0,0,0,0,0,0,0,0,0,0,0],"split_type":[0,0,0,0,0,0,0,0,0,0,0,0,0,0,0,0,0,0,0,0,0,0,0,0,0,0,0,0,0,0,0,0,0,0,0,0,0,0,0,0,0,0,0,0,0,0,0,0,0,0,0,0,0,0,0,0,0,0,0,0,0,0,0,0,0,0,0,0,0,0,0,0,0,0,0,0,0,0,0,0,0,0,0,0,0,0,0,0,0,0,0,0,0,0,0],"sum_hessian":[4.094E3,3.508E3,5.86E2,3.498E3,1E1,2.6E1,5.6E2,3.019E3,4.79E2,3E0,7E0,1.4E1,1.2E1,5.04E2,5.6E1,2.994E3,2.5E1,1E2,3.79E2,2E0,1E0,5E0,2E0,1.2E1,2E0,9E0,3E0,4.83E2,2.1E1,3.3E1,2.3E1,2.693E3,3.01E2,1.5E1,1E1,8.9E1,1.1E1,1.71E2,2.08E2,1E0,1E0,9E0,3E0,1E0,1E0,6E0,3E0,2E0,1E0,2.61E2,2.22E2,1.8E1,3E0,1E1,2.3E1,7E0,1.6E1,1.13E2,2.58E3,9.8E1,2.03E2,6E0,9E0,3E0,7E0,6.1E1,2.8E1,5E0,6E0,1.07E2,6.4E1,8.9E1,1.19E2,6E0,3E0,1E0,2E0,1E0,1E0,2.23E2,3.8E1,2.1E1,2.01E2,1.2E1,6E0,2E0,1E0,5E0,5E0,1E1,1.3E1,6E0,1E0,1.4E1,2E0],"tree_param":{"num_deleted":"0","num_feature":"4","num_nodes":"95","size_leaf_vector":"1"}},{"base_weights":[2.7719023E-2,1.8223609E-1,-2.92036E0,-8.086667E-1,6.231827E-1,-5.710345E0,2.273922E0,-4.185631E-1,-7.8362713E0,5.4183805E-1,2.0414621E1,-2.2963965E0,-9.141225E0,-4.9045954E0,7.51821E0,8.9457564E-2,-5.805532E0,1.421167E1,-9.981985E0,1.4763979E0,-8.432278E-1,7.449748E-1,7.4108644E0,-6.487409E0,8.086404E0,-1.9967596E1,-6.108953E0,-9.517463E0,2.2145653E0,2.2012987E1,4.490942E0,1.1427422E0,-2.4407833E0,-9.324812E0,1.4089539E0,-7.7040486E-2,1.7156725E1,-7.0879474E0,-2.1703058E1,5.1803565E-1,3.8858793E0,2.1052048E0,-1.8262105E0,-7.1886295E-1,1.0541016E0,8.989259E0,-7.871072E0,2.051149E1,-3.9442556E0,-6.2481E0,-1.3193082E0,1.1808312E0,-7.8317127E0,-5.8713923E0,-1.8552183E1,-3.7444413E0,7.871523E0,-4.426111E0,3.0599718E1,1.4489294E1,-4.8790437E-1,2.656381E-1,9.676472E0,-1.0937297E0,2.009357E0,-3.4441397E0,8.087377E0,1.5959245E0,-3.4431736E0,6.658043E0,1.9203194E0,-2.593756E0,9.920045E0,-7.396397E0,-1.6841737E0,1.0108843E0,-2.592637E-1,2.9437E0,1.6662623E-1,1.6969E0,-5.0312763E-1,-7.7221787E-1,2.166915E-1,-3.0310867E0,1.3663892E0,-1.6686894E0,7.207983E0,4.375331E-1,-4.129077E0,4.4054637E0,-1.0355164E0,-2.692173E0,2.1224537E-1,-3.2864268E0,3.253964E0,-6.792011E0,-3.3011627E-1,6.198614E0,-1.6855529E-1,1.1440833E1,3.1053874E0,6.5533295E0,-5.303513E-2,-4.364536E0,1.4153929E0],"categories":[],"categories_nodes":[],"categories_segments":[],"categories_sizes":[],"default_left":[0,0,0,0,0,0,0,0,0,0,0,0,0,0,0,0,0,0,0,0,0,0,0,0,0,0,0,0,0,0,0,0,0,0,0,0,0,0,0,0,0,0,0,0,0,0,0,0,0,0,0,0,0,0,0,0,0,0,0,0,0,0,0,0,0,0,0,0,0,0,0,0,0,0,0,0,0,0,0,0,0,0,0,0,0,0,0,0,0,0,0,0,0,0,0,0,0,0,0,0,0,0,0,0,0],"id":11,"left_children":[1,3,5,7,9,11,13,15,17,19,21,23,25,27,29,31,33,35,37,39,41,43,-1,45,47,49,51,53,55,57,59,61,63,65,67,-1,69,71,73,75,77,79,81,-1,-1,-1,83,85,87,-1,-1,89,91,93,95,-1,97,-1,99,101,103,-1,-1,-1,-1,-1,-1,-1,-1,-1,-1,-1,-1,-1,-1,-1,-1,-1,-1,-1,-1,-1,-1,-1,-1,-1,-1,-1,-1,-1,-1,-1,-1,-1,-1,-1,-1,-1,-1,-1,-1,-1,-1,-1,-1],"loss_changes":[1.8659216E3,1.7010558E3,2.969346E3,3.2837712E3,4.3260835E3,1.5368169E3,2.747401E3,3.1121375E3,3.1222996E3,3.4754866E3,9.0943115E2,3.0114421E3,2.0447002E3,1.0391091E3,1.7440825E3,2.7744553E3,2.5013381E3,2.6006848E2,1.8136016E3,3.6995637E3,3.1397603E3,3.451046E1,0E0,2.70725E3,3.0705422E3,9.5740234E1,6.748508E2,5.169564E2,1.1790012E3,2.6613997E3,1.7991586E3,5.8548154E3,3.39406E3,5.471545E3,1.7240999E3,0E0,1.2880615E2,3.2886433E3,3.839663E2,4.5278555E3,8.994991E3,3.649401E3,1.5494536E3,0E0,0E0,0E0,1.3775857E3,1.0501685E3,6.036334E2,0E0,0E0,7.3882837E2,4.2574707E2,1.3935715E3,3.3178894E2,0E0,1.0902816E3,0E0,5.208428E2,1.298314E3,1.8985773E3,0E0,0E0,0E0,0E0,0E0,0E0,0E0,0E0,0E0,0E0,0E0,0E0,0E0,0E0,0E0,0E0,0E0,0E0,0E0,0E0,0E0,0E0,0E0,0E0,0E0,0E0,0E0,0E0,0E0,0E0,0E0,0E0,0E0,0E0,0E0,0E0,0E0,0E0,0E0,0E0,0E0,0E0,0E0,0E0],"parents":[2147483647,0,0,1,1,2,2,3,3,4,4,5,5,6,6,7,7,8,8,9,9,10,10,11,11,12,12,13,13,14,14,15,15,16,16,17,17,18,18,19,19,20,20,21,21,23,23,24,24,25,25,26,26,27,27,28,28,29,29,30,30,31,31,32,32,33,33,34,34,36,36,37,37,38,38,39,39,40,40,41,41,42,42,46,46,47,47,48,48,51,51,52,52,53,53,54,54,56,56,58,58,59,59,60,60],"right_children":[2,4,6,8,10,12,14,16,18,20,22,24,26,28,30,32,34,36,38,40,42,44,-1,46,48,50,52,54,56,58,60,62,64,66,68,-1,70,72,74,76,78,80,82,-1,-1,-1,84,86,88,-1,-1,90,92,94,96,-1,98,-1,100,102,104,-1,-1,-1,-1,-1,-1,-1,-1,-1,-1,-1,-1,-1,-1,-1,-1,-1,-1,-1,-1,-1,-1,-1,-1,-1,-1,-1,-1,-1,-1,-1,-1,-1,-1,-1,-1,-1,-1,-1,-1,-1,-1,-1,-1],"split_conditions":[3.3799995E1,2.7669004E1,1.784816E1,2.7147028E1,2.9827904E1,1.7120177E2,3.9600002E1,2.3990698E1,7.9147496E0,2.5500166E1,7.131417E0,8.725195E1,1.8456516E2,2.358558E1,4.1699997E1,1.7787668E1,5.9E0,1.7447933E1,6.799999E0,1.5603754E2,6.367422E1,4.3897505E0,7.4108644E0,7.10031E0,2.4254333E1,7.2100006E1,1.9346057E2,3.4631615E1,4.730211E1,9.841832E0,1.9083395E1,1.7687666E1,2.8414755E1,2.146267E1,2.64E1,-7.7040486E-2,1E-1,5.6000004E0,2.146267E1,3.1743908E1,1.8520412E2,1.4658676E1,2.0377235E2,-7.1886295E-1,1.0541016E0,8.989259E0,2.5093918E1,4.3349743E0,1.527005E2,-6.2481E0,-1.3193082E0,2.3387667E1,2.6714746E1,3.1201742E1,1.788356E2,-3.7444413E0,1.3023625E2,-4.426111E0,2.2681831E1,2.6062668E1,4.9399998E1,2.656381E-1,9.676472E0,-1.0937297E0,2.009357E0,-3.4441397E0,8.087377E0,1.5959245E0,-3.4431736E0,6.658043E0,1.9203194E0,-2.593756E0,9.920045E0,-7.396397E0,-1.6841737E0,1.0108843E0,-2.592637E-1,2.9437E0,1.6662623E-1,1.6969E0,-5.0312763E-1,-7.7221787E-1,2.166915E-1,-3.0310867E0,1.3663892E0,-1.6686894E0,7.207983E0,4.375331E-1,-4.129077E0,4.4054637E0,-1.0355164E0,-2.692173E0,2.1224537E-1,-3.2864268E0,3.253964E0,-6.792011E0,-3.3011627E-1,6.198614E0,-1.6855529E-1,1.1440833E1,3.1053874E0,6.5533295E0,-5.303513E-2,-4.364536E0,1.4153929E0],"split_indices":[1,3,2,3,2,3,1,2,0,0,0,3,3,0,1,0,1,2,1,3,3,0,0,2,0,1,3,3,3,0,2,0,0,0,1,0,1,1,0,3,3,2,3,0,0,0,0,2,3,0,0,0,0,3,3,0,3,0,0,0,1,0,0,0,0,0,0,0,0,0,0,0,0,0,0,0,0,0,0,0,0,0,0,0,0,0,0,0,0,0,0,0,0,0,0,0,0,0,0,0,0,0,0,0,0],"split_type":[0,0,0,0,0,0,0,0,0,0,0,0,0,0,0,0,0,0,0,0,0,0,0,0,0,0,0,0,0,0,0,0,0,0,0,0,0,0,0,0,0,0,0,0,0,0,0,0,0,0,0,0,0,0,0,0,0,0,0,0,0,0,0,0,0,0,0,0,0,0,0,0,0,0,0,0,0,0,0,0,0,0,0,0,0,0,0,0,0,0,0,0,0,0,0,0,0,0,0,0,0,0,0,0,0],"sum_hessian":[4.094E3,3.891E3,2.03E2,1.198E3,2.693E3,1.32E2,7.1E1,1.136E3,6.2E1,2.683E3,1E1,6.7E1,6.5E1,3E1,4.1E1,1.039E3,9.7E1,5E0,5.7E1,1.602E3,1.081E3,2E0,8E0,4.8E1,1.9E1,1.3E1,5.2E1,1.8E1,1.2E1,6E0,3.5E1,7.34E2,3.05E2,6.5E1,3.2E1,1E0,4E0,4.7E1,1E1,1.147E3,4.55E2,2.7E2,8.11E2,1E0,1E0,1E0,4.7E1,9E0,1E1,1.2E1,1E0,1E1,4.2E1,1.4E1,4E0,3E0,9E0,1E0,5E0,1.1E1,2.4E1,7.29E2,5E0,2.7E2,3.5E1,6.2E1,3E0,2.5E1,7E0,2E0,2E0,4.6E1,1E0,8E0,2E0,3.74E2,7.73E2,1.63E2,2.92E2,1.39E2,1.31E2,6.27E2,1.84E2,4E1,7E0,1E0,8E0,7E0,3E0,2E0,8E0,3.7E1,5E0,1.1E1,3E0,3E0,1E0,3E0,6E0,3E0,2E0,7E0,4E0,6E0,1.8E1],"tree_param":{"num_deleted":"0","num_feature":"4","num_nodes":"105","size_leaf_vector":"1"}},{"base_weights":[3.013361E-2,1.4137095E0,-2.729444E-1,2.682029E0,-6.614181E-1,-7.5972657E0,-1.6225606E-1,2.3030396E0,2.1291397E1,-5.3300085E0,2.4364727E0,-1.3274573E1,-5.1482825E0,4.3395627E-1,-1.1898044E0,3.3670583E0,-1.8061839E0,1.0233361E1,-3.261158E0,-1.1869941E0,-1.1248529E1,1.2749353E1,3.8578865E-1,1.7560902E1,-7.611865E0,1.8785952E-1,9.562967E0,-1.5376168E0,5.5370083E0,2.6867104E0,1.5328687E1,1.4598666E0,-9.440225E0,3.8575745E0,-3.6926033E0,-1.4537002E1,3.644329E-1,-1.0290967E0,-1.482512E1,1.620528E1,3.6529193E0,-7.1827054E-1,2.178097E1,2.1134819E1,4.8978427E-1,-1.3211167E1,4.5096266E-1,3.2036942E-1,-4.5172305E0,1.1734098E1,-4.3485518E0,-1.2734458E0,-8.520409E0,-2.1169217E0,8.135361E0,-6.0566854E-1,1.1624707E0,1.6094774E1,1.4371512E0,3.2027545E0,-2.3574904E-1,-5.254802E0,-3.399026E-2,2.6584625E-1,1.4700623E0,-5.881529E0,-3.733536E-1,3.80257E0,-3.627067E-1,-1.2913063E0,2.2248964E0,-6.245951E0,-1.1940121E-1,2.6396494E0,8.610943E0,-2.1296054E-1,5.783283E0,-5.011536E0,1.6385765E-1,8.307785E0,1.4003701E0,8.21632E0,2.9763808E0,-5.913129E0,-1.5587159E0,5.247731E0,-1.1512774E0,1.8394248E0,5.384815E-2,-6.546215E-1,-2.3318412E0,-3.6698562E-1,4.5983887E0,2.1561189E0,-4.3741676E-1,-3.5430353E0,-1.043404E0,2.885326E0,-3.6937592E0,2.9129684E0,-1.9208657E0],"categories":[],"categories_nodes":[],"categories_segments":[],"categories_sizes":[],"default_left":[0,0,0,0,0,0,0,0,0,0,0,0,0,0,0,0,0,0,0,0,0,0,0,0,0,0,0,0,0,0,0,0,0,0,0,0,0,0,0,0,0,0,0,0,0,0,0,0,0,0,0,0,0,0,0,0,0,0,0,0,0,0,0,0,0,0,0,0,0,0,0,0,0,0,0,0,0,0,0,0,0,0,0,0,0,0,0,0,0,0,0,0,0,0,0,0,0,0,0,0,0],"id":12,"left_children":[1,3,5,7,9,11,13,15,17,19,21,-1,23,25,27,29,31,-1,33,35,37,39,41,43,45,47,49,51,53,55,57,59,61,63,-1,65,67,69,71,73,75,77,79,81,-1,83,85,87,89,91,-1,93,95,97,99,-1,-1,-1,-1,-1,-1,-1,-1,-1,-1,-1,-1,-1,-1,-1,-1,-1,-1,-1,-1,-1,-1,-1,-1,-1,-1,-1,-1,-1,-1,-1,-1,-1,-1,-1,-1,-1,-1,-1,-1,-1,-1,-1,-1,-1,-1],"loss_changes":[1.7175481E3,1.9388707E3,2.722776E3,3.1740757E3,4.062566E3,4.260117E3,2.0289574E3,1.96924E3,2.9440725E3,2.7329456E3,3.569171E3,0E0,2.8190767E3,4.707118E3,2.8535513E3,2.8641082E3,2.3325654E3,0E0,3.051091E2,1.3929723E3,1.6660771E3,8.210288E2,3.369904E3,2.5012695E2,1.9923909E3,1.274575E3,3.0429238E3,2.1234111E3,1.2104784E3,1.9032273E3,7.415745E3,1.3743451E3,2.1070369E3,4.9519615E0,0E0,4.4717444E2,1.1969247E3,3.915144E2,2.932253E3,1.5987417E3,6.271895E2,2.7583337E3,5.788987E2,8.748413E0,0E0,1.2520469E3,1.455711E3,1.6255265E3,4.0876697E2,2.393671E3,0E0,1.7535536E3,6.5562085E2,2.0326934E3,1.0922642E3,0E0,0E0,0E0,0E0,0E0,0E0,0E0,0E0,0E0,0E0,0E0,0E0,0E0,0E0,0E0,0E0,0E0,0E0,0E0,0E0,0E0,0E0,0E0,0E0,0E0,0E0,0E0,0E0,0E0,0E0,0E0,0E0,0E0,0E0,0E0,0E0,0E0,0E0,0E0,0E0,0E0,0E0,0E0,0E0,0E0,0E0],"parents":[2147483647,0,0,1,1,2,2,3,3,4,4,5,5,6,6,7,7,8,8,9,9,10,10,12,12,13,13,14,14,15,15,16,16,18,18,19,19,20,20,21,21,22,22,23,23,24,24,25,25,26,26,27,27,28,28,29,29,30,30,31,31,32,32,33,33,35,35,36,36,37,37,38,38,39,39,40,40,41,41,42,42,43,43,45,45,46,46,47,47,48,48,49,49,51,51,52,52,53,53,54,54],"right_children":[2,4,6,8,10,12,14,16,18,20,22,-1,24,26,28,30,32,-1,34,36,38,40,42,44,46,48,50,52,54,56,58,60,62,64,-1,66,68,70,72,74,76,78,80,82,-1,84,86,88,90,92,-1,94,96,98,100,-1,-1,-1,-1,-1,-1,-1,-1,-1,-1,-1,-1,-1,-1,-1,-1,-1,-1,-1,-1,-1,-1,-1,-1,-1,-1,-1,-1,-1,-1,-1,-1,-1,-1,-1,-1,-1,-1,-1,-1,-1,-1,-1,-1,-1,-1],"split_conditions":[9.346143E0,2.5500166E1,9.56713E0,2.5344336E1,8E-1,8.070132E0,4.8999996E0,1.8214487E2,5.29304E1,2E-1,1.3000001E0,-1.3274573E1,1.4279332E1,4.3E0,2.8058496E1,1.5807039E2,8.39657E0,1.0233361E1,6.600001E0,1.8884125E1,6.489992E0,8.39657E0,2.7300001E1,3.9999998E0,6.4999995E0,2.9818914E1,1.8835141E2,2.762725E1,1.1901798E1,2.1508911E1,1.4146415E1,1.2268918E1,1.84335E1,2.5410997E1,-3.6926033E0,7.771331E0,3.9529545E1,2.8462667E1,1.9700018E2,1.803069E2,9.007196E0,3.0814703E1,3.28E1,1.3321E1,4.8978427E-1,8.725195E1,8.800001E0,1.512748E1,1.7120177E2,8.49225E0,-4.3485518E0,1.0304779E1,1.23E1,1.7415448E2,2.0431387E1,-6.0566854E-1,1.1624707E0,1.6094774E1,1.4371512E0,3.2027545E0,-2.3574904E-1,-5.254802E0,-3.399026E-2,2.6584625E-1,1.4700623E0,-5.881529E0,-3.733536E-1,3.80257E0,-3.627067E-1,-1.2913063E0,2.2248964E0,-6.245951E0,-1.1940121E-1,2.6396494E0,8.610943E0,-2.1296054E-1,5.783283E0,-5.011536E0,1.6385765E-1,8.307785E0,1.4003701E0,8.21632E0,2.9763808E0,-5.913129E0,-1.5587159E0,5.247731E0,-1.1512774E0,1.8394248E0,5.384815E-2,-6.546215E-1,-2.3318412E0,-3.6698562E-1,4.5983887E0,2.1561189E0,-4.3741676E-1,-3.5430353E0,-1.043404E0,2.885326E0,-3.6937592E0,2.9129684E0,-1.9208657E0],"split_indices":[2,0,2,0,1,3,1,3,3,1,1,0,0,1,0,3,2,0,1,3,2,2,1,1,1,0,3,0,2,3,0,0,0,0,0,2,3,0,3,3,2,3,1,0,0,3,1,3,3,0,0,3,1,3,2,0,0,0,0,0,0,0,0,0,0,0,0,0,0,0,0,0,0,0,0,0,0,0,0,0,0,0,0,0,0,0,0,0,0,0,0,0,0,0,0,0,0,0,0,0,0],"split_type":[0,0,0,0,0,0,0,0,0,0,0,0,0,0,0,0,0,0,0,0,0,0,0,0,0,0,0,0,0,0,0,0,0,0,0,0,0,0,0,0,0,0,0,0,0,0,0,0,0,0,0,0,0,0,0,0,0,0,0,0,0,0,0,0,0,0,0,0,0,0,0,0,0,0,0,0,0,0,0,0,0,0,0,0,0,0,0,0,0,0,0,0,0,0,0,0,0,0,0,0,0],"sum_hessian":[4.094E3,7.35E2,3.359E3,4.56E2,2.79E2,4.9E1,3.31E3,4.48E2,8E0,1.11E2,1.68E2,2E0,4.7E1,2.095E3,1.215E3,3.56E2,9.2E1,5E0,3E0,6.6E1,4.5E1,2.7E1,1.41E2,4E0,4.3E1,2.041E3,5.4E1,1.156E3,5.9E1,3.38E2,1.8E1,6.5E1,2.7E1,2E0,1E0,6E0,6E1,1.2E1,3.3E1,1.9E1,8E0,1.35E2,6E0,3E0,1E0,2.5E1,1.8E1,1.986E3,5.5E1,5E1,4E0,1.115E3,4.1E1,1.5E1,4.4E1,6.8E1,2.7E2,3E0,1.5E1,1.2E1,5.3E1,1.4E1,1.3E1,1E0,1E0,4E0,2E0,6E0,5.4E1,9E0,3E0,2.3E1,1E1,1.3E1,6E0,7E0,1E0,9E0,1.26E2,4E0,2E0,1E0,2E0,1.3E1,1.2E1,3E0,1.5E1,4.6E1,1.94E3,3.3E1,2.2E1,1.1E1,3.9E1,2.3E1,1.092E3,2.4E1,1.7E1,7E0,8E0,4E1,4E0],"tree_param":{"num_deleted":"0","num_feature":"4","num_nodes":"101","size_leaf_vector":"1"}},{"base_weights":[2.808142E-2,4.6053576E0,-2.7345963E-2,8.1053705E0,-3.1200047E0,-1.4282032E0,1.5933809E-1,1.6389612E0,1.1558005E1,-6.5502596E0,-4.1677856E-1,-1.0319134E0,-1.2757041E1,1.6983047E1,7.886497E-2,-4.845632E0,5.2322116E0,1.996859E1,5.325629E0,2.9022598E0,-2.7134058E0,-3.2851045E0,2.5913426E-1,-6.1556584E-1,-2.4821571E1,-3.0011055E0,3.984036E1,1.1990532E0,-2.6210865E-1,-1.5845108E0,-3.5780237E0,3.8040345E0,3.2139427E1,1.8277931E0,8.562352E0,-1.092068E1,3.7812252E0,-7.635689E0,5.7921996E0,2.1733784E1,-5.735428E-1,-1.7432123E1,6.6794686E0,-5.451546E-1,-3.282285E1,1.4635928E1,-9.239855E0,1.7839246E0,1.3149859E1,3.0229303E-1,3.9316032E0,-3.4208946E0,-8.050969E-3,1.049223E0,-1.5999436E0,2.0284271E0,-1.2640992E-1,1.4887777E1,4.6083965E0,-4.3704668E-1,1.6429843E0,3.1078699E0,1.387365E0,-7.274315E-1,-4.3687325E0,2.6712737E0,-1.0703568E0,-1.5279673E0,-5.242069E0,9.510914E0,7.7011627E-1,9.484411E0,-4.5460706E0,-8.05445E-1,9.319202E-1,-1.6291581E-1,-7.68154E0,6.654101E0,-1.1870838E0,-8.0672324E-1,5.614037E-1,-1.1648373E1,-4.1963425E-1,-3.744358E-1,6.9606037E0,-5.9634104E0,-7.1423686E-1,1.3365719E-1,-8.877149E0,7.7633767E0,9.075081E-1,3.056799E0,-2.2085142E0,-2.1079667E-2,5.217657E0],"categories":[],"categories_nodes":[],"categories_segments":[],"categories_sizes":[],"default_left":[0,0,0,0,0,0,0,0,0,0,0,0,0,0,0,0,0,0,0,0,0,0,0,0,0,0,0,0,0,0,0,0,0,0,0,0,0,0,0,0,0,0,0,0,0,0,0,0,0,0,0,0,0,0,0,0,0,0,0,0,0,0,0,0,0,0,0,0,0,0,0,0,0,0,0,0,0,0,0,0,0,0,0,0,0,0,0,0,0,0,0,0,0,0,0],"id":13,"left_children":[1,3,5,7,9,11,13,15,17,-1,19,21,23,25,27,29,-1,31,33,-1,35,37,39,41,43,45,47,49,51,53,-1,55,57,59,61,63,65,67,69,71,73,75,77,79,81,83,85,-1,-1,87,89,91,93,-1,-1,-1,-1,-1,-1,-1,-1,-1,-1,-1,-1,-1,-1,-1,-1,-1,-1,-1,-1,-1,-1,-1,-1,-1,-1,-1,-1,-1,-1,-1,-1,-1,-1,-1,-1,-1,-1,-1,-1,-1,-1],"loss_changes":[1.039054E3,1.3501935E3,1.0585897E3,7.4014575E2,8.0031915E2,2.123839E3,4.8346357E3,1.4165936E3,1.0468489E3,0E0,3.738783E2,1.3418898E3,2.3284194E3,7.884893E3,1.3585449E3,2.120256E2,0E0,1.648366E3,1.4285117E2,0E0,7.342353E2,6.6788125E3,5.2696113E3,1.2205336E3,1.5360459E3,1.2355642E3,8.219258E2,2.0326783E3,2.1884277E3,1.7105429E2,0E0,6.532983E1,7.0463184E2,1.0385823E2,1.6311646E0,1.5032983E2,3.32965E2,2.7624224E3,4.51476E3,4.4883647E3,2.2148408E3,4.001988E2,1.2418818E3,2.0574562E1,1.0779082E3,4.3715106E2,5.364183E2,0E0,0E0,2.6934463E3,4.000402E3,1.0963003E4,2.7346577E3,0E0,0E0,0E0,0E0,0E0,0E0,0E0,0E0,0E0,0E0,0E0,0E0,0E0,0E0,0E0,0E0,0E0,0E0,0E0,0E0,0E0,0E0,0E0,0E0,0E0,0E0,0E0,0E0,0E0,0E0,0E0,0E0,0E0,0E0,0E0,0E0,0E0,0E0,0E0,0E0,0E0,0E0],"parents":[2147483647,0,0,1,1,2,2,3,3,4,4,5,5,6,6,7,7,8,8,10,10,11,11,12,12,13,13,14,14,15,15,17,17,18,18,20,20,21,21,22,22,23,23,24,24,25,25,26,26,27,27,28,28,29,29,31,31,32,32,33,33,34,34,35,35,36,36,37,37,38,38,39,39,40,40,41,41,42,42,43,43,44,44,45,45,46,46,49,49,50,50,51,51,52,52],"right_children":[2,4,6,8,10,12,14,16,18,-1,20,22,24,26,28,30,-1,32,34,-1,36,38,40,42,44,46,48,50,52,54,-1,56,58,60,62,64,66,68,70,72,74,76,78,80,82,84,86,-1,-1,88,90,92,94,-1,-1,-1,-1,-1,-1,-1,-1,-1,-1,-1,-1,-1,-1,-1,-1,-1,-1,-1,-1,-1,-1,-1,-1,-1,-1,-1,-1,-1,-1,-1,-1,-1,-1,-1,-1,-1,-1,-1,-1,-1,-1],"split_conditions":[5.0528407E0,4.2000003E0,2.0952715E1,4.3349743E0,5.1E0,2.074874E1,2.1131748E1,3.6E0,1.5743918E1,-6.5502596E0,9.537666E0,1.0837666E1,1.7174677E1,2.7E0,1.4279332E1,2.0867586E2,5.2322116E0,1.342725E1,4.6800003E0,2.9022598E0,1.1E1,1.8892282E1,1.10772505E1,9.255571E0,3.8505838E0,6.1085E0,9.504272E0,1.2373084E1,2.561186E1,1.35335E1,-3.5780237E0,1.0610583E1,1E-1,1.0869909E2,7.61303E1,6.4999995E0,2.1144331E1,1.0143915E1,1.9201874E1,1.6372087E1,1.4578888E1,1.1529334E1,1.5124284E1,2.579333E0,1.12751665E1,1E-1,8.073083E0,1.7839246E0,1.3149859E1,3.5710553E2,7.289445E0,1.2287555E1,2.9827904E1,1.049223E0,-1.5999436E0,2.0284271E0,-1.2640992E-1,1.4887777E1,4.6083965E0,-4.3704668E-1,1.6429843E0,3.1078699E0,1.387365E0,-7.274315E-1,-4.3687325E0,2.6712737E0,-1.0703568E0,-1.5279673E0,-5.242069E0,9.510914E0,7.7011627E-1,9.484411E0,-4.5460706E0,-8.05445E-1,9.319202E-1,-1.6291581E-1,-7.68154E0,6.654101E0,-1.1870838E0,-8.0672324E-1,5.614037E-1,-1.1648373E1,-4.1963425E-1,-3.744358E-1,6.9606037E0,-5.9634104E0,-7.1423686E-1,1.3365719E-1,-8.877149E0,7.7633767E0,9.075081E-1,3.056799E0,-2.2085142E0,-2.1079667E-2,5.217657E0],"split_indices":[2,1,3,2,1,3,3,1,0,0,0,0,2,1,0,3,0,0,2,0,1,2,0,2,0,0,2,0,3,0,0,0,1,3,3,1,0,0,2,2,2,0,2,0,0,1,0,0,0,3,2,2,2,0,0,0,0,0,0,0,0,0,0,0,0,0,0,0,0,0,0,0,0,0,0,0,0,0,0,0,0,0,0,0,0,0,0,0,0,0,0,0,0,0,0],"split_type":[0,0,0,0,0,0,0,0,0,0,0,0,0,0,0,0,0,0,0,0,0,0,0,0,0,0,0,0,0,0,0,0,0,0,0,0,0,0,0,0,0,0,0,0,0,0,0,0,0,0,0,0,0,0,0,0,0,0,0,0,0,0,0,0,0,0,0,0,0,0,0,0,0,0,0,0,0,0,0,0,0,0,0,0,0,0,0,0,0,0,0,0,0,0,0],"sum_hessian":[4.094E3,4.8E1,4.046E3,3.3E1,1.5E1,4.75E2,3.571E3,1.2E1,2.1E1,1E0,1.4E1,4.6E2,1.5E1,1.6E1,3.555E3,9E0,3E0,8E0,1.3E1,2E0,1.2E1,1.67E2,2.93E2,8E0,7E0,9E0,7E0,8.29E2,2.726E3,7E0,2E0,4E0,4E0,7E0,6E0,5E0,7E0,1.13E2,5.4E1,1E1,2.83E2,2E0,6E0,2E0,5E0,2E0,7E0,1E0,6E0,6.25E2,2.04E2,2.02E2,2.524E3,3E0,4E0,2E0,2E0,1E0,3E0,4E0,3E0,3E0,3E0,2E0,3E0,4E0,3E0,9.1E1,2.2E1,5E0,4.9E1,8E0,2E0,1.8E2,1.03E2,1E0,1E0,2E0,4E0,1E0,1E0,4E0,1E0,1E0,1E0,2E0,5E0,6.23E2,2E0,7E0,1.97E2,4.5E1,1.57E2,2.516E3,8E0],"tree_param":{"num_deleted":"0","num_feature":"4","num_nodes":"95","size_leaf_vector":"1"}},{"base_weights":[2.8388942E-2,1.9082838E-1,-1.284516E0,1.5777043E-1,1.0185974E1,-2.2068532E0,3.683019E0,5.929263E0,1.08082846E-1,1.0227596E1,-1.5706961E0,-6.144194E0,-7.837988E-1,2.0051756E1,3.47888E-1,9.324393E0,2.1243546E0,-4.9776063E0,2.2199702E-1,6.607239E0,-9.434492E0,-7.6759475E-1,-8.405185E0,1.5294422E1,-1.310979E0,2.9223543E1,1.3665451E0,-1.8051825E0,1.2749196E1,-5.5588684E0,5.3440065E0,2.9342546E0,-7.1943145E0,3.4783977E-1,-2.0017335E0,-3.7178078E-1,2.663605E0,1.2783022E0,-1.3923618E1,2.3149E0,-1.3997139E1,-4.391071E0,-1.4067314E1,2.2621933E1,-6.4988503E0,6.3817897E0,-2.0780804E0,1.8769406E0,3.583649E1,3.7976384E0,-4.621216E0,2.179331E0,-1.3926364E1,1.8786901E1,-5.588514E0,3.8667948E0,-7.8371406E-1,-3.6407158E0,5.805793E0,-5.551551E-1,-4.3566737E0,5.9228424E-2,1.5353366E0,1.9054979E-1,-1.55018E0,-5.4227624E0,-1.9542726E0,-9.093821E-1,4.41681E0,-3.3823397E-2,-6.2733455E0,-6.465415E-1,-4.6746836E0,-5.125355E0,1.1496458E0,2.5495813E0,1.0386185E1,4.5430872E-1,4.9607334E0,-5.6983924E0,-4.7466612E-1,1.2875626E1,4.3343935E0,-3.3422801E0,2.2406902E0,2.7710905E0,-2.3737764E0,-7.9953685E0,-2.2331347E0,-5.117859E-1,8.197571E0,-2.2167687E0,-2.9806253E-1],"categories":[],"categories_nodes":[],"categories_segments":[],"categories_sizes":[],"default_left":[0,0,0,0,0,0,0,0,0,0,0,0,0,0,0,0,0,0,0,0,0,0,0,0,0,0,0,0,0,0,0,0,0,0,0,0,0,0,0,0,0,0,0,0,0,0,0,0,0,0,0,0,0,0,0,0,0,0,0,0,0,0,0,0,0,0,0,0,0,0,0,0,0,0,0,0,0,0,0,0,0,0,0,0,0,0,0,0,0,0,0,0,0],"id":14,"left_children":[1,3,5,7,9,11,13,15,17,-1,19,21,23,25,27,-1,29,31,33,35,37,39,41,43,45,47,49,51,53,-1,55,57,59,61,63,-1,-1,-1,65,67,69,71,73,75,-1,77,79,-1,81,-1,83,85,87,89,91,-1,-1,-1,-1,-1,-1,-1,-1,-1,-1,-1,-1,-1,-1,-1,-1,-1,-1,-1,-1,-1,-1,-1,-1,-1,-1,-1,-1,-1,-1,-1,-1,-1,-1,-1,-1,-1,-1],"loss_changes":[8.735756E2,1.2027703E3,2.0744937E3,1.0414868E3,3.42621E3,2.129946E3,3.8690476E3,2.9007104E3,2.0890178E3,0E0,6.4112244E2,1.2213489E3,2.4018406E3,2.0165864E3,1.625068E3,0E0,1.9609777E3,1.4066344E3,9.874133E2,1.001176E2,3.6673276E2,1.2965819E3,1.5519482E3,2.9272974E3,1.6242715E3,9.9083057E2,3.9657547E2,2.5417944E3,1.1014501E3,0E0,1.5345066E3,4.688502E3,2.400983E3,2.3938577E3,1.5809014E3,0E0,0E0,0E0,5.3119507E0,1.769319E3,5.736234E2,1.0423977E3,1.6316519E3,1.0614634E3,0E0,1.2105538E3,2.0586199E3,0E0,2.8878467E2,0E0,3.9850958E2,2.9220925E3,8.739839E2,1.271439E3,1.7481201E1,0E0,0E0,0E0,0E0,0E0,0E0,0E0,0E0,0E0,0E0,0E0,0E0,0E0,0E0,0E0,0E0,0E0,0E0,0E0,0E0,0E0,0E0,0E0,0E0,0E0,0E0,0E0,0E0,0E0,0E0,0E0,0E0,0E0,0E0,0E0,0E0,0E0,0E0],"parents":[2147483647,0,0,1,1,2,2,3,3,4,4,5,5,6,6,7,7,8,8,10,10,11,11,12,12,13,13,14,14,16,16,17,17,18,18,19,19,20,20,21,21,22,22,23,23,24,24,25,25,26,26,27,27,28,28,30,30,31,31,32,32,33,33,34,34,38,38,39,39,40,40,41,41,42,42,43,43,45,45,46,46,48,48,50,50,51,51,52,52,53,53,54,54],"right_children":[2,4,6,8,10,12,14,16,18,-1,20,22,24,26,28,-1,30,32,34,36,38,40,42,44,46,48,50,52,54,-1,56,58,60,62,64,-1,-1,-1,66,68,70,72,74,76,-1,78,80,-1,82,-1,84,86,88,90,92,-1,-1,-1,-1,-1,-1,-1,-1,-1,-1,-1,-1,-1,-1,-1,-1,-1,-1,-1,-1,-1,-1,-1,-1,-1,-1,-1,-1,-1,-1,-1,-1,-1,-1,-1,-1,-1,-1],"split_conditions":[2.09E1,2.0400002E1,2.1385939E1,2.579333E0,1.2879752E1,3.1201742E1,2.2065973E1,1.8847641E1,5.16725E0,1.0227596E1,1.5990646E1,1.318308E1,3.3055836E1,4.1699997E1,5.7901127E1,9.324393E0,1.9813087E1,1.8884125E1,2.1676918E2,1.3392774E1,1.4279332E1,2.7147028E1,1.6779335E1,1.7731598E1,1.9614752E1,1.2373084E1,2.0756418E1,3.3055836E1,3.5500004E1,-5.5588684E0,2.3990698E1,1.8775303E1,2.9999998E0,2.0377235E2,2.7000003E0,-3.7178078E-1,2.663605E0,1.2783022E0,1.6779335E1,2.2953402E1,2.2400003E1,2.049156E1,2.026899E1,2.253975E1,-6.4988503E0,1.8712667E1,2.0252665E1,1.8769406E0,2.2681831E1,3.7976384E0,2.1599998E1,2.5582806E1,1.7687666E1,2.3300001E1,2.1639753E1,3.8667948E0,-7.8371406E-1,-3.6407158E0,5.805793E0,-5.551551E-1,-4.3566737E0,5.9228424E-2,1.5353366E0,1.9054979E-1,-1.55018E0,-5.4227624E0,-1.9542726E0,-9.093821E-1,4.41681E0,-3.3823397E-2,-6.2733455E0,-6.465415E-1,-4.6746836E0,-5.125355E0,1.1496458E0,2.5495813E0,1.0386185E1,4.5430872E-1,4.9607334E0,-5.6983924E0,-4.7466612E-1,1.2875626E1,4.3343935E0,-3.3422801E0,2.2406902E0,2.7710905E0,-2.3737764E0,-7.9953685E0,-2.2331347E0,-5.117859E-1,8.197571E0,-2.2167687E0,-2.9806253E-1],"split_indices":[1,1,2,0,2,3,2,2,0,0,2,2,3,1,3,0,2,3,3,2,0,3,0,2,0,0,0,3,1,0,2,2,1,3,1,0,0,0,0,3,1,2,2,0,0,0,0,0,0,0,2,2,0,1,0,0,0,0,0,0,0,0,0,0,0,0,0,0,0,0,0,0,0,0,0,0,0,0,0,0,0,0,0,0,0,0,0,0,0,0,0,0,0],"split_type":[0,0,0,0,0,0,0,0,0,0,0,0,0,0,0,0,0,0,0,0,0,0,0,0,0,0,0,0,0,0,0,0,0,0,0,0,0,0,0,0,0,0,0,0,0,0,0,0,0,0,0,0,0,0,0,0,0,0,0,0,0,0,0,0,0,0,0,0,0,0,0,0,0,0,0,0,0,0,0,0,0,0,0,0,0,0,0,0,0,0,0,0,0],"sum_hessian":[4.094E3,3.644E3,4.5E2,3.633E3,1.1E1,3.8E2,7E1,3E1,3.603E3,3E0,8E0,1E2,2.8E2,1.1E1,5.9E1,3E0,2.7E1,7.8E1,3.525E3,4E0,4E0,3E1,7E1,8E0,2.72E2,7E0,4E0,5.1E1,8E0,3E0,2.4E1,1.7E1,6.1E1,3.337E3,1.88E2,1E0,3E0,1E0,3E0,2.5E1,5E0,4.2E1,2.8E1,7E0,1E0,2.4E1,2.48E2,2E0,5E0,1E0,3E0,3.9E1,1.2E1,6E0,2E0,1.2E1,1.2E1,9E0,8E0,3.6E1,2.5E1,3.236E3,1.01E2,1.03E2,8.5E1,1E0,2E0,1.8E1,7E0,2E0,3E0,3.6E1,6E0,2.4E1,4E0,4E0,3E0,1.7E1,7E0,6E0,2.42E2,3E0,2E0,2E0,1E0,2.3E1,1.6E1,3E0,9E0,2E0,4E0,1E0,1E0],"tree_param":{"num_deleted":"0","num_feature":"4","num_nodes":"93","size_leaf_vector":"1"}},{"base_weights":[2.5113385E-2,5.027499E-1,-4.3783873E-1,5.55513E0,2.1944764E-1,-9.145286E0,-2.3203683E-1,3.252119E0,2.3516289E1,-2.7365181E0,9.054104E-1,-2.8775082E1,-6.193563E0,1.3411864E0,-6.5987927E-1,-8.264888E0,5.155565E0,8.983624E0,1.0965505E1,-1.9744732E0,-8.958106E0,7.905584E-1,1.2613548E1,-3.457681E1,3.5032656E-2,1.77458E1,-9.103903E0,2.6588655E0,-9.401921E-1,-4.7902064E0,-1.6516562E-1,3.3943791E0,-1.7433636E1,1.7820879E1,2.327517E0,-1.15478525E1,1.9505787E1,-4.6345824E-1,-5.0491505E0,-1.5292887E1,4.8878326E0,6.688241E-1,8.437025E0,-4.86357E0,2.8513973E1,-1.1447626E1,-3.0373547E0,-4.026047E-1,9.275505E0,7.5284376E0,-1.5098794E1,1.2674307E1,1.1517502E0,-7.0609374E0,3.1079304E0,-9.856137E0,-1.6680033E0,-6.863278E-2,-7.728454E0,4.349127E0,-2.6167622E-1,-7.385092E0,-1.2288169E0,1.5901691E0,7.673642E0,-2.8210527E-1,3.7135987E0,-1.0936106E0,-4.1029234E0,6.7750955E0,1.0791492E0,-5.669172E-1,3.0260372E0,-5.2303405E0,-1.7865147E-1,-5.5548387E0,7.777799E-1,6.4605155E0,-2.8999953E-2,2.2986512E-1,-2.5492437E0,-2.3376249E-1,5.3154573E0,1.0277086E0,-3.1566806E0,1.4422473E1,2.148729E0,-2.2117712E-1,6.6533155E0,-9.5220715E-1,-5.847126E0,6.998189E0,1.1862617E0,-8.324965E0,4.163395E-1,-1.0373493E1,-1.54223E0,3.422425E0,-5.932615E-1,-3.5206609E0,4.513126E0,1.6032411E-1,-1.450083E0,-1.7344275E0,1.6601572E-2,-4.8041635E0,7.0088655E-1],"categories":[],"categories_nodes":[],"categories_segments":[],"categories_sizes":[],"default_left":[0,0,0,0,0,0,0,0,0,0,0,0,0,0,0,0,0,0,0,0,0,0,0,0,0,0,0,0,0,0,0,0,0,0,0,0,0,0,0,0,0,0,0,0,0,0,0,0,0,0,0,0,0,0,0,0,0,0,0,0,0,0,0,0,0,0,0,0,0,0,0,0,0,0,0,0,0,0,0,0,0,0,0,0,0,0,0,0,0,0,0,0,0,0,0,0,0,0,0,0,0,0,0,0,0,0,0],"id":15,"left_children":[1,3,5,7,9,11,13,15,17,19,21,23,25,27,29,31,33,35,-1,37,39,41,43,45,-1,47,49,51,53,55,57,59,61,63,65,67,69,71,73,75,77,79,81,83,85,-1,-1,-1,-1,87,89,91,93,95,97,99,101,103,105,-1,-1,-1,-1,-1,-1,-1,-1,-1,-1,-1,-1,-1,-1,-1,-1,-1,-1,-1,-1,-1,-1,-1,-1,-1,-1,-1,-1,-1,-1,-1,-1,-1,-1,-1,-1,-1,-1,-1,-1,-1,-1,-1,-1,-1,-1,-1,-1],"loss_changes":[9.057182E2,2.8843843E3,3.7252568E3,4.3495493E3,3.875351E3,2.6029817E3,1.3692803E3,2.1471216E3,1.9449014E3,1.6891189E3,2.075662E3,1.0097739E3,3.157438E3,1.3101641E3,3.2664924E3,1.5557886E3,2.9314255E3,1.7374987E3,0E0,1.4936342E3,3.4954775E3,1.4250541E3,4.307084E3,5.1594727E1,0E0,1.2986688E3,4.0023237E3,4.151463E3,3.9863489E3,2.6882441E3,1.0427905E3,3.442435E2,6.656338E2,1.3213936E3,2.2780015E3,6.071167E-1,1.6358582E2,3.2843594E3,5.8365576E3,1.6045347E3,1.0807964E3,1.358109E3,2.0667036E3,4.112977E2,2.9969155E3,0E0,0E0,0E0,0E0,1.3483018E3,1.4568418E3,3.2519844E3,1.6826545E3,3.203876E3,4.1169463E3,3.2183389E3,7.4858575E2,1.00033014E3,1.5384448E3,0E0,0E0,0E0,0E0,0E0,0E0,0E0,0E0,0E0,0E0,0E0,0E0,0E0,0E0,0E0,0E0,0E0,0E0,0E0,0E0,0E0,0E0,0E0,0E0,0E0,0E0,0E0,0E0,0E0,0E0,0E0,0E0,0E0,0E0,0E0,0E0,0E0,0E0,0E0,0E0,0E0,0E0,0E0,0E0,0E0,0E0,0E0,0E0],"parents":[2147483647,0,0,1,1,2,2,3,3,4,4,5,5,6,6,7,7,8,8,9,9,10,10,11,11,12,12,13,13,14,14,15,15,16,16,17,17,19,19,20,20,21,21,22,22,23,23,25,25,26,26,27,27,28,28,29,29,30,30,31,31,32,32,33,33,34,34,35,35,36,36,37,37,38,38,39,39,40,40,41,41,42,42,43,43,44,44,49,49,50,50,51,51,52,52,53,53,54,54,55,55,56,56,57,57,58,58],"right_children":[2,4,6,8,10,12,14,16,18,20,22,24,26,28,30,32,34,36,-1,38,40,42,44,46,-1,48,50,52,54,56,58,60,62,64,66,68,70,72,74,76,78,80,82,84,86,-1,-1,-1,-1,88,90,92,94,96,98,100,102,104,106,-1,-1,-1,-1,-1,-1,-1,-1,-1,-1,-1,-1,-1,-1,-1,-1,-1,-1,-1,-1,-1,-1,-1,-1,-1,-1,-1,-1,-1,-1,-1,-1,-1,-1,-1,-1,-1,-1,-1,-1,-1,-1,-1,-1,-1,-1,-1,-1],"split_conditions":[2.0756418E1,1.4709677E1,2.106267E1,1.3745992E1,2.2002243E1,1.2528798E1,1E-1,8.49225E0,9.537666E0,2.2180206E1,2.0641834E1,1.5486278E1,2.0562561E1,4.1009018E1,5E-1,5.81475E0,1.0143915E1,6.600001E0,1.0965505E1,1.342725E1,6.3E0,3.9600002E1,1.4241629E1,2.0948084E1,3.5032656E-2,1.843504E1,9.686609E0,1.0739833E1,1.4014551E2,2.711683E1,2.582106E1,1.5E0,7.9147496E0,3E-1,1.2287555E1,3.8505838E0,1.9878391E1,1.1925166E1,1.5104333E1,1.6685583E1,8.5E0,2.0565165E1,1.8352667E1,6.9153743E0,2.1261345E1,-1.1447626E1,-3.0373547E0,-4.026047E-1,9.275505E0,8.891344E0,3.0109772E1,2.4866835E1,1.0948973E1,2.1639753E1,1.9014073E2,2.0243391E2,1.3237039E1,1.4709677E1,2.7558228E1,4.349127E0,-2.6167622E-1,-7.385092E0,-1.2288169E0,1.5901691E0,7.673642E0,-2.8210527E-1,3.7135987E0,-1.0936106E0,-4.1029234E0,6.7750955E0,1.0791492E0,-5.669172E-1,3.0260372E0,-5.2303405E0,-1.7865147E-1,-5.5548387E0,7.777799E-1,6.4605155E0,-2.8999953E-2,2.2986512E-1,-2.5492437E0,-2.3376249E-1,5.3154573E0,1.0277086E0,-3.1566806E0,1.4422473E1,2.148729E0,-2.2117712E-1,6.6533155E0,-9.5220715E-1,-5.847126E0,6.998189E0,1.1862617E0,-8.324965E0,4.163395E-1,-1.0373493E1,-1.54223E0,3.422425E0,-5.932615E-1,-3.5206609E0,4.513126E0,1.6032411E-1,-1.450083E0,-1.7344275E0,1.6601572E-2,-4.8041635E0,7.0088655E-1],"split_indices":[0,3,0,3,3,3,1,0,0,2,0,2,3,3,1,0,0,1,0,0,1,1,2,0,0,3,2,2,3,0,2,1,0,1,2,0,2,0,0,0,1,0,0,2,2,0,0,0,0,2,3,0,2,0,3,3,2,3,2,0,0,0,0,0,0,0,0,0,0,0,0,0,0,0,0,0,0,0,0,0,0,0,0,0,0,0,0,0,0,0,0,0,0,0,0,0,0,0,0,0,0,0,0,0,0,0,0],"split_type":[0,0,0,0,0,0,0,0,0,0,0,0,0,0,0,0,0,0,0,0,0,0,0,0,0,0,0,0,0,0,0,0,0,0,0,0,0,0,0,0,0,0,0,0,0,0,0,0,0,0,0,0,0,0,0,0,0,0,0,0,0,0,0,0,0,0,0,0,0,0,0,0,0,0,0,0,0,0,0,0,0,0,0,0,0,0,0,0,0,0,0,0,0,0,0,0,0,0,0,0,0,0,0,0,0,0,0],"sum_hessian":[4.094E3,2.015E3,2.079E3,1.06E2,1.909E3,4.7E1,2.032E3,9.5E1,1.1E1,3.59E2,1.55E3,5E0,4.2E1,4.34E2,1.598E3,1.3E1,8.2E1,6E0,5E0,3.21E2,3.8E1,1.536E3,1.4E1,4E0,1E0,4E0,3.8E1,2.75E2,1.59E2,1.7E2,1.428E3,6E0,7E0,1.4E1,6.8E1,2E0,4E0,2.16E2,1.05E2,2.6E1,1.2E1,1.513E3,2.3E1,7E0,7E0,3E0,1E0,2E0,2E0,1E1,2.8E1,3.5E1,2.4E2,6.3E1,9.6E1,6.4E1,1.06E2,1.411E3,1.7E1,1E0,5E0,4E0,3E0,6E0,8E0,5.2E1,1.6E1,1E0,1E0,3E0,1E0,1.91E2,2.5E1,2.7E1,7.8E1,2.2E1,4E0,2E0,1E1,1.498E3,1.5E1,1.2E1,1.1E1,3E0,4E0,3E0,4E0,7E0,3E0,8E0,2E1,1.5E1,2E1,1E0,2.39E2,3E0,6E1,3.6E1,6E1,6E1,4E0,6.3E1,4.3E1,2.9E1,1.382E3,9E0,8E0],"tree_param":{"num_deleted":"0","num_feature":"4","num_nodes":"107","size_leaf_vector":"1"}},{"base_weights":[2.168924E-2,9.1659373E-1,-1.7434391E-1,2.827377E0,-2.7650815E-1,-5.36571E0,-7.672675E-2,7.3087454E-1,7.7853904E0,-1.5051626E0,3.626161E0,-1.2912011E1,1.6571611E0,1.8949826E0,-2.079793E-1,3.6322312E0,-4.0507107E0,9.267012E0,-1.7477629E1,-4.7049994E0,1.7152926E-1,1.5961911E1,5.0101703E-1,-9.778709E0,-9.517687E0,1.7587816E1,-3.3083158E0,2.1960176E1,1.2865939E0,-7.2838445E0,-1.10568784E-1,5.1892266E0,-7.299126E0,-1.043908E1,1.0947611E0,4.414172E0,1.8121778E1,-6.3421745E0,-4.2387316E-1,-5.930894E-1,-1.0991476E1,-2.3783462E0,2.7875826E0,1.3023606E1,1.10463E1,-9.383614E0,2.3394678E0,-8.339238E-1,-2.0302896E1,5.9624443E0,2.3682633E-1,-1.5895091E1,2.1655009E0,9.397229E0,-3.7289133E0,-3.6596687E0,3.2221136E0,-1.0663248E1,8.411528E0,1.6265095E1,-1.9135995E-1,6.7108166E-1,6.0463276E0,3.187448E0,-4.2477536E0,5.658354E0,-4.492347E0,2.5263395E0,-1.8844111E0,-3.7514237E-1,4.6494703E0,8.994801E0,1.7530497E0,2.7621524E0,-1.1903555E0,-8.9356985E0,-2.4134674E0,6.5831866E0,-8.9926326E-1,-6.7055434E-1,1.8808225E0,1.6020764E0,6.264105E0,3.533245E-1,-4.6145697E0,1.2939091E0,-1.3942714E0,1.1267289E0,-1.7679243E0,-7.5622983E0,-3.3590574E0,4.1322627E0,-6.6303926E0,9.026718E0,-8.668706E-1,2.7360513E0,-1.7796898E0,6.4032143E-1,6.4746995E0,-4.2850333E-1,-6.1072087E0,5.6240835E0,-4.6173385E-1,-9.837117E-1,7.101044E0,-2.2228746E0,-2.4118453E-2],"categories":[],"categories_nodes":[],"categories_segments":[],"categories_sizes":[],"default_left":[0,0,0,0,0,